{"learner":{"attributes":{"scikit_learn":"{\"_estimator_type\": \"classifier\"}"},"feature_names":["abdominal_pain","abnormal_menstruation","acidity","acute_liver_failure","altered_sensorium","anxiety","back_pain","belly_pain","blackheads","bladder_discomfort","blister","blood_in_sputum","bloody_stool","blurred_and_distorted_vision","breathlessness","brittle_nails","bruising","burning_micturition","chest_pain","chills","cold_hands_and_feets","coma","congestion","constipation","continuous_feel_of_urine","continuous_sneezing","cough","cramps","dark_urine","dehydration","depression","diarrhoea","dischromic _patches","distention_of_abdomen","dizziness","drying_and_tingling_lips","enlarged_thyroid","excessive_hunger","extra_marital_contacts","family_history","fast_heart_rate","fatigue","fluid_overload","foul_smell_of urine","headache","high_fever","hip_joint_pain","history_of_alcohol_consumption","increased_appetite","indigestion","inflammatory_nails","internal_itching","irregular_sugar_level","irritability","irritation_in_anus","itching","joint_pain","knee_pain","lack_of_concentration","lethargy","loss_of_appetite","loss_of_balance","loss_of_smell","malaise","mild_fever","mood_swings","movement_stiffness","mucoid_sputum","muscle_pain","muscle_wasting","muscle_weakness","nausea","neck_pain","nodal_skin_eruptions","obesity","pain_behind_the_eyes","pain_during_bowel_movements","pain_in_anal_region","painful_walking","palpitations","passage_of_gases","patches_in_throat","phlegm","polyuria","prominent_veins_on_calf","puffy_face_and_eyes","pus_filled_pimples","receiving_blood_transfusion","receiving_unsterile_injections","red_sore_around_nose","red_spots_over_body","redness_of_eyes","restlessness","runny_nose","rusty_sputum","scurring","shivering","silver_like_dusting","sinus_pressure","skin_peeling","skin_rash","slurred_speech","small_dents_in_nails","spinning_movements","spotting_ urination","stiff_neck","stomach_bleeding","stomach_pain","sunken_eyes","sweating","swelled_lymph_nodes","swelling_joints","swelling_of_stomach","swollen_blood_vessels","swollen_extremeties","swollen_legs","throat_irritation","toxic_look_(typhos)","ulcers_on_tongue","unsteadiness","visual_disturbances","vomiting","watering_from_eyes","weakness_in_limbs","weakness_of_one_body_side","weight_gain","weight_loss","yellow_crust_ooze","yellow_urine","yellowing_of_eyes","yellowish_skin"],"feature_types":["i","i","i","i","i","i","i","i","i","i","i","i","i","i","i","i","i","i","i","i","i","i","i","i","i","i","i","i","i","i","i","i","i","i","i","i","i","i","i","i","i","i","i","i","i","i","i","i","i","i","i","i","i","i","i","i","i","i","i","i","i","i","i","i","i","i","i","i","i","i","i","i","i","i","i","i","i","i","i","i","i","i","i","i","i","i","i","i","i","i","i","i","i","i","i","i","i","i","i","i","i","i","i","i","i","i","i","i","i","i","i","i","i","i","i","i","i","i","i","i","i","i","i","i","i","i","i","i","i","i","i"],"gradient_booster":{"model":{"gbtree_model_param":{"num_parallel_tree":"1","num_trees":"4920"},"iteration_indptr":[0,41,82,123,164,205,246,287,328,369,410,451,492,533,574,615,656,697,738,779,820,861,902,943,984,1025,1066,1107,1148,1189,1230,1271,1312,1353,1394,1435,1476,1517,1558,1599,1640,1681,1722,1763,1804,1845,1886,1927,1968,2009,2050,2091,2132,2173,2214,2255,2296,2337,2378,2419,2460,2501,2542,2583,2624,2665,2706,2747,2788,2829,2870,2911,2952,2993,3034,3075,3116,3157,3198,3239,3280,3321,3362,3403,3444,3485,3526,3567,3608,3649,3690,3731,3772,3813,3854,3895,3936,3977,4018,4059,4100,4141,4182,4223,4264,4305,4346,4387,4428,4469,4510,4551,4592,4633,4674,4715,4756,4797,4838,4879,4920],"tree_info":[0,1,2,3,4,5,6,7,8,9,10,11,12,13,14,15,16,17,18,19,20,21,22,23,24,25,26,27,28,29,30,31,32,33,34,35,36,37,38,39,40,0,1,2,3,4,5,6,7,8,9,10,11,12,13,14,15,16,17,18,19,20,21,22,23,24,25,26,27,28,29,30,31,32,33,34,35,36,37,38,39,40,0,1,2,3,4,5,6,7,8,9,10,11,12,13,14,15,16,17,18,19,20,21,22,23,24,25,26,27,28,29,30,31,32,33,34,35,36,37,38,39,40,0,1,2,3,4,5,6,7,8,9,10,11,12,13,14,15,16,17,18,19,20,21,22,23,24,25,26,27,28,29,30,31,32,33,34,35,36,37,38,39,40,0,1,2,3,4,5,6,7,8,9,10,11,12,13,14,15,16,17,18,19,20,21,22,23,24,25,26,27,28,29,30,31,32,33,34,35,36,37,38,39,40,0,1,2,3,4,5,6,7,8,9,10,11,12,13,14,15,16,17,18,19,20,21,22,23,24,25,26,27,28,29,30,31,32,33,34,35,36,37,38,39,40,0,1,2,3,4,5,6,7,8,9,10,11,12,13,14,15,16,17,18,19,20,21,22,23,24,25,26,27,28,29,30,31,32,33,34,35,36,37,38,39,40,0,1,2,3,4,5,6,7,8,9,10,11,12,13,14,15,16,17,18,19,20,21,22,23,24,25,26,27,28,29,30,31,32,33,34,35,36,37,38,39,40,0,1,2,3,4,5,6,7,8,9,10,11,12,13,14,15,16,17,18,19,20,21,22,23,24,25,26,27,28,29,30,31,32,33,34,35,36,37,38,39,40,0,1,2,3,4,5,6,7,8,9,10,11,12,13,14,15,16,17,18,19,20,21,22,23,24,25,26,27,28,29,30,31,32,33,34,35,36,37,38,39,40,0,1,2,3,4,5,6,7,8,9,10,11,12,13,14,15,16,17,18,19,20,21,22,23,24,25,26,27,28,29,30,31,32,33,34,35,36,37,38,39,40,0,1,2,3,4,5,6,7,8,9,10,11,12,13,14,15,16,17,18,19,20,21,22,23,24,25,26,27,28,29,30,31,32,33,34,35,36,37,38,39,40,0,1,2,3,4,5,6,7,8,9,10,11,12,13,14,15,16,17,18,19,20,21,22,23,24,25,26,27,28,29,30,31,32,33,34,35,36,37,38,39,40,0,1,2,3,4,5,6,7,8,9,10,11,12,13,14,15,16,17,18,19,20,21,22,23,24,25,26,27,28,29,30,31,32,33,34,35,36,37,38,39,40,0,1,2,3,4,5,6,7,8,9,10,11,12,13,14,15,16,17,18,19,20,21,22,23,24,25,26,27,28,29,30,31,32,33,34,35,36,37,38,39,40,0,1,2,3,4,5,6,7,8,9,10,11,12,13,14,15,16,17,18,19,20,21,22,23,24,25,26,27,28,29,30,31,32,33,34,35,36,37,38,39,40,0,1,2,3,4,5,6,7,8,9,10,11,12,13,14,15,16,17,18,19,20,21,22,23,24,25,26,27,28,29,30,31,32,33,34,35,36,37,38,39,40,0,1,2,3,4,5,6,7,8,9,10,11,12,13,14,15,16,17,18,19,20,21,22,23,24,25,26,27,28,29,30,31,32,33,34,35,36,37,38,39,40,0,1,2,3,4,5,6,7,8,9,10,11,12,13,14,15,16,17,18,19,20,21,22,23,24,25,26,27,28,29,30,31,32,33,34,35,36,37,38,39,40,0,1,2,3,4,5,6,7,8,9,10,11,12,13,14,15,16,17,18,19,20,21,22,23,24,25,26,27,28,29,30,31,32,33,34,35,36,37,38,39,40,0,1,2,3,4,5,6,7,8,9,10,11,12,13,14,15,16,17,18,19,20,21,22,23,24,25,26,27,28,29,30,31,32,33,34,35,36,37,38,39,40,0,1,2,3,4,5,6,7,8,9,10,11,12,13,14,15,16,17,18,19,20,21,22,23,24,25,26,27,28,29,30,31,32,33,34,35,36,37,38,39,40,0,1,2,3,4,5,6,7,8,9,10,11,12,13,14,15,16,17,18,19,20,21,22,23,24,25,26,27,28,29,30,31,32,33,34,35,36,37,38,39,40,0,1,2,3,4,5,6,7,8,9,10,11,12,13,14,15,16,17,18,19,20,21,22,23,24,25,26,27,28,29,30,31,32,33,34,35,36,37,38,39,40,0,1,2,3,4,5,6,7,8,9,10,11,12,13,14,15,16,17,18,19,20,21,22,23,24,25,26,27,28,29,30,31,32,33,34,35,36,37,38,39,40,0,1,2,3,4,5,6,7,8,9,10,11,12,13,14,15,16,17,18,19,20,21,22,23,24,25,26,27,28,29,30,31,32,33,34,35,36,37,38,39,40,0,1,2,3,4,5,6,7,8,9,10,11,12,13,14,15,16,17,18,19,20,21,22,23,24,25,26,27,28,29,30,31,32,33,34,35,36,37,38,39,40,0,1,2,3,4,5,6,7,8,9,10,11,12,13,14,15,16,17,18,19,20,21,22,23,24,25,26,27,28,29,30,31,32,33,34,35,36,37,38,39,40,0,1,2,3,4,5,6,7,8,9,10,11,12,13,14,15,16,17,18,19,20,21,22,23,24,25,26,27,28,29,30,31,32,33,34,35,36,37,38,39,40,0,1,2,3,4,5,6,7,8,9,10,11,12,13,14,15,16,17,18,19,20,21,22,23,24,25,26,27,28,29,30,31,32,33,34,35,36,37,38,39,40,0,1,2,3,4,5,6,7,8,9,10,11,12,13,14,15,16,17,18,19,20,21,22,23,24,25,26,27,28,29,30,31,32,33,34,35,36,37,38,39,40,0,1,2,3,4,5,6,7,8,9,10,11,12,13,14,15,16,17,18,19,20,21,22,23,24,25,26,27,28,29,30,31,32,33,34,35,36,37,38,39,40,0,1,2,3,4,5,6,7,8,9,10,11,12,13,14,15,16,17,18,19,20,21,22,23,24,25,26,27,28,29,30,31,32,33,34,35,36,37,38,39,40,0,1,2,3,4,5,6,7,8,9,10,11,12,13,14,15,16,17,18,19,20,21,22,23,24,25,26,27,28,29,30,31,32,33,34,35,36,37,38,39,40,0,1,2,3,4,5,6,7,8,9,10,11,12,13,14,15,16,17,18,19,20,21,22,23,24,25,26,27,28,29,30,31,32,33,34,35,36,37,38,39,40,0,1,2,3,4,5,6,7,8,9,10,11,12,13,14,15,16,17,18,19,20,21,22,23,24,25,26,27,28,29,30,31,32,33,34,35,36,37,38,39,40,0,1,2,3,4,5,6,7,8,9,10,11,12,13,14,15,16,17,18,19,20,21,22,23,24,25,26,27,28,29,30,31,32,33,34,35,36,37,38,39,40,0,1,2,3,4,5,6,7,8,9,10,11,12,13,14,15,16,17,18,19,20,21,22,23,24,25,26,27,28,29,30,31,32,33,34,35,36,37,38,39,40,0,1,2,3,4,5,6,7,8,9,10,11,12,13,14,15,16,17,18,19,20,21,22,23,24,25,26,27,28,29,30,31,32,33,34,35,36,37,38,39,40,0,1,2,3,4,5,6,7,8,9,10,11,12,13,14,15,16,17,18,19,20,21,22,23,24,25,26,27,28,29,30,31,32,33,34,35,36,37,38,39,40,0,1,2,3,4,5,6,7,8,9,10,11,12,13,14,15,16,17,18,19,20,21,22,23,24,25,26,27,28,29,30,31,32,33,34,35,36,37,38,39,40,0,1,2,3,4,5,6,7,8,9,10,11,12,13,14,15,16,17,18,19,20,21,22,23,24,25,26,27,28,29,30,31,32,33,34,35,36,37,38,39,40,0,1,2,3,4,5,6,7,8,9,10,11,12,13,14,15,16,17,18,19,20,21,22,23,24,25,26,27,28,29,30,31,32,33,34,35,36,37,38,39,40,0,1,2,3,4,5,6,7,8,9,10,11,12,13,14,15,16,17,18,19,20,21,22,23,24,25,26,27,28,29,30,31,32,33,34,35,36,37,38,39,40,0,1,2,3,4,5,6,7,8,9,10,11,12,13,14,15,16,17,18,19,20,21,22,23,24,25,26,27,28,29,30,31,32,33,34,35,36,37,38,39,40,0,1,2,3,4,5,6,7,8,9,10,11,12,13,14,15,16,17,18,19,20,21,22,23,24,25,26,27,28,29,30,31,32,33,34,35,36,37,38,39,40,0,1,2,3,4,5,6,7,8,9,10,11,12,13,14,15,16,17,18,19,20,21,22,23,24,25,26,27,28,29,30,31,32,33,34,35,36,37,38,39,40,0,1,2,3,4,5,6,7,8,9,10,11,12,13,14,15,16,17,18,19,20,21,22,23,24,25,26,27,28,29,30,31,32,33,34,35,36,37,38,39,40,0,1,2,3,4,5,6,7,8,9,10,11,12,13,14,15,16,17,18,19,20,21,22,23,24,25,26,27,28,29,30,31,32,33,34,35,36,37,38,39,40,0,1,2,3,4,5,6,7,8,9,10,11,12,13,14,15,16,17,18,19,20,21,22,23,24,25,26,27,28,29,30,31,32,33,34,35,36,37,38,39,40,0,1,2,3,4,5,6,7,8,9,10,11,12,13,14,15,16,17,18,19,20,21,22,23,24,25,26,27,28,29,30,31,32,33,34,35,36,37,38,39,40,0,1,2,3,4,5,6,7,8,9,10,11,12,13,14,15,16,17,18,19,20,21,22,23,24,25,26,27,28,29,30,31,32,33,34,35,36,37,38,39,40,0,1,2,3,4,5,6,7,8,9,10,11,12,13,14,15,16,17,18,19,20,21,22,23,24,25,26,27,28,29,30,31,32,33,34,35,36,37,38,39,40,0,1,2,3,4,5,6,7,8,9,10,11,12,13,14,15,16,17,18,19,20,21,22,23,24,25,26,27,28,29,30,31,32,33,34,35,36,37,38,39,40,0,1,2,3,4,5,6,7,8,9,10,11,12,13,14,15,16,17,18,19,20,21,22,23,24,25,26,27,28,29,30,31,32,33,34,35,36,37,38,39,40,0,1,2,3,4,5,6,7,8,9,10,11,12,13,14,15,16,17,18,19,20,21,22,23,24,25,26,27,28,29,30,31,32,33,34,35,36,37,38,39,40,0,1,2,3,4,5,6,7,8,9,10,11,12,13,14,15,16,17,18,19,20,21,22,23,24,25,26,27,28,29,30,31,32,33,34,35,36,37,38,39,40,0,1,2,3,4,5,6,7,8,9,10,11,12,13,14,15,16,17,18,19,20,21,22,23,24,25,26,27,28,29,30,31,32,33,34,35,36,37,38,39,40,0,1,2,3,4,5,6,7,8,9,10,11,12,13,14,15,16,17,18,19,20,21,22,23,24,25,26,27,28,29,30,31,32,33,34,35,36,37,38,39,40,0,1,2,3,4,5,6,7,8,9,10,11,12,13,14,15,16,17,18,19,20,21,22,23,24,25,26,27,28,29,30,31,32,33,34,35,36,37,38,39,40,0,1,2,3,4,5,6,7,8,9,10,11,12,13,14,15,16,17,18,19,20,21,22,23,24,25,26,27,28,29,30,31,32,33,34,35,36,37,38,39,40,0,1,2,3,4,5,6,7,8,9,10,11,12,13,14,15,16,17,18,19,20,21,22,23,24,25,26,27,28,29,30,31,32,33,34,35,36,37,38,39,40,0,1,2,3,4,5,6,7,8,9,10,11,12,13,14,15,16,17,18,19,20,21,22,23,24,25,26,27,28,29,30,31,32,33,34,35,36,37,38,39,40,0,1,2,3,4,5,6,7,8,9,10,11,12,13,14,15,16,17,18,19,20,21,22,23,24,25,26,27,28,29,30,31,32,33,34,35,36,37,38,39,40,0,1,2,3,4,5,6,7,8,9,10,11,12,13,14,15,16,17,18,19,20,21,22,23,24,25,26,27,28,29,30,31,32,33,34,35,36,37,38,39,40,0,1,2,3,4,5,6,7,8,9,10,11,12,13,14,15,16,17,18,19,20,21,22,23,24,25,26,27,28,29,30,31,32,33,34,35,36,37,38,39,40,0,1,2,3,4,5,6,7,8,9,10,11,12,13,14,15,16,17,18,19,20,21,22,23,24,25,26,27,28,29,30,31,32,33,34,35,36,37,38,39,40,0,1,2,3,4,5,6,7,8,9,10,11,12,13,14,15,16,17,18,19,20,21,22,23,24,25,26,27,28,29,30,31,32,33,34,35,36,37,38,39,40,0,1,2,3,4,5,6,7,8,9,10,11,12,13,14,15,16,17,18,19,20,21,22,23,24,25,26,27,28,29,30,31,32,33,34,35,36,37,38,39,40,0,1,2,3,4,5,6,7,8,9,10,11,12,13,14,15,16,17,18,19,20,21,22,23,24,25,26,27,28,29,30,31,32,33,34,35,36,37,38,39,40,0,1,2,3,4,5,6,7,8,9,10,11,12,13,14,15,16,17,18,19,20,21,22,23,24,25,26,27,28,29,30,31,32,33,34,35,36,37,38,39,40,0,1,2,3,4,5,6,7,8,9,10,11,12,13,14,15,16,17,18,19,20,21,22,23,24,25,26,27,28,29,30,31,32,33,34,35,36,37,38,39,40,0,1,2,3,4,5,6,7,8,9,10,11,12,13,14,15,16,17,18,19,20,21,22,23,24,25,26,27,28,29,30,31,32,33,34,35,36,37,38,39,40,0,1,2,3,4,5,6,7,8,9,10,11,12,13,14,15,16,17,18,19,20,21,22,23,24,25,26,27,28,29,30,31,32,33,34,35,36,37,38,39,40,0,1,2,3,4,5,6,7,8,9,10,11,12,13,14,15,16,17,18,19,20,21,22,23,24,25,26,27,28,29,30,31,32,33,34,35,36,37,38,39,40,0,1,2,3,4,5,6,7,8,9,10,11,12,13,14,15,16,17,18,19,20,21,22,23,24,25,26,27,28,29,30,31,32,33,34,35,36,37,38,39,40,0,1,2,3,4,5,6,7,8,9,10,11,12,13,14,15,16,17,18,19,20,21,22,23,24,25,26,27,28,29,30,31,32,33,34,35,36,37,38,39,40,0,1,2,3,4,5,6,7,8,9,10,11,12,13,14,15,16,17,18,19,20,21,22,23,24,25,26,27,28,29,30,31,32,33,34,35,36,37,38,39,40,0,1,2,3,4,5,6,7,8,9,10,11,12,13,14,15,16,17,18,19,20,21,22,23,24,25,26,27,28,29,30,31,32,33,34,35,36,37,38,39,40,0,1,2,3,4,5,6,7,8,9,10,11,12,13,14,15,16,17,18,19,20,21,22,23,24,25,26,27,28,29,30,31,32,33,34,35,36,37,38,39,40,0,1,2,3,4,5,6,7,8,9,10,11,12,13,14,15,16,17,18,19,20,21,22,23,24,25,26,27,28,29,30,31,32,33,34,35,36,37,38,39,40,0,1,2,3,4,5,6,7,8,9,10,11,12,13,14,15,16,17,18,19,20,21,22,23,24,25,26,27,28,29,30,31,32,33,34,35,36,37,38,39,40,0,1,2,3,4,5,6,7,8,9,10,11,12,13,14,15,16,17,18,19,20,21,22,23,24,25,26,27,28,29,30,31,32,33,34,35,36,37,38,39,40,0,1,2,3,4,5,6,7,8,9,10,11,12,13,14,15,16,17,18,19,20,21,22,23,24,25,26,27,28,29,30,31,32,33,34,35,36,37,38,39,40,0,1,2,3,4,5,6,7,8,9,10,11,12,13,14,15,16,17,18,19,20,21,22,23,24,25,26,27,28,29,30,31,32,33,34,35,36,37,38,39,40,0,1,2,3,4,5,6,7,8,9,10,11,12,13,14,15,16,17,18,19,20,21,22,23,24,25,26,27,28,29,30,31,32,33,34,35,36,37,38,39,40,0,1,2,3,4,5,6,7,8,9,10,11,12,13,14,15,16,17,18,19,20,21,22,23,24,25,26,27,28,29,30,31,32,33,34,35,36,37,38,39,40,0,1,2,3,4,5,6,7,8,9,10,11,12,13,14,15,16,17,18,19,20,21,22,23,24,25,26,27,28,29,30,31,32,33,34,35,36,37,38,39,40,0,1,2,3,4,5,6,7,8,9,10,11,12,13,14,15,16,17,18,19,20,21,22,23,24,25,26,27,28,29,30,31,32,33,34,35,36,37,38,39,40,0,1,2,3,4,5,6,7,8,9,10,11,12,13,14,15,16,17,18,19,20,21,22,23,24,25,26,27,28,29,30,31,32,33,34,35,36,37,38,39,40,0,1,2,3,4,5,6,7,8,9,10,11,12,13,14,15,16,17,18,19,20,21,22,23,24,25,26,27,28,29,30,31,32,33,34,35,36,37,38,39,40,0,1,2,3,4,5,6,7,8,9,10,11,12,13,14,15,16,17,18,19,20,21,22,23,24,25,26,27,28,29,30,31,32,33,34,35,36,37,38,39,40,0,1,2,3,4,5,6,7,8,9,10,11,12,13,14,15,16,17,18,19,20,21,22,23,24,25,26,27,28,29,30,31,32,33,34,35,36,37,38,39,40,0,1,2,3,4,5,6,7,8,9,10,11,12,13,14,15,16,17,18,19,20,21,22,23,24,25,26,27,28,29,30,31,32,33,34,35,36,37,38,39,40,0,1,2,3,4,5,6,7,8,9,10,11,12,13,14,15,16,17,18,19,20,21,22,23,24,25,26,27,28,29,30,31,32,33,34,35,36,37,38,39,40,0,1,2,3,4,5,6,7,8,9,10,11,12,13,14,15,16,17,18,19,20,21,22,23,24,25,26,27,28,29,30,31,32,33,34,35,36,37,38,39,40,0,1,2,3,4,5,6,7,8,9,10,11,12,13,14,15,16,17,18,19,20,21,22,23,24,25,26,27,28,29,30,31,32,33,34,35,36,37,38,39,40,0,1,2,3,4,5,6,7,8,9,10,11,12,13,14,15,16,17,18,19,20,21,22,23,24,25,26,27,28,29,30,31,32,33,34,35,36,37,38,39,40,0,1,2,3,4,5,6,7,8,9,10,11,12,13,14,15,16,17,18,19,20,21,22,23,24,25,26,27,28,29,30,31,32,33,34,35,36,37,38,39,40,0,1,2,3,4,5,6,7,8,9,10,11,12,13,14,15,16,17,18,19,20,21,22,23,24,25,26,27,28,29,30,31,32,33,34,35,36,37,38,39,40,0,1,2,3,4,5,6,7,8,9,10,11,12,13,14,15,16,17,18,19,20,21,22,23,24,25,26,27,28,29,30,31,32,33,34,35,36,37,38,39,40,0,1,2,3,4,5,6,7,8,9,10,11,12,13,14,15,16,17,18,19,20,21,22,23,24,25,26,27,28,29,30,31,32,33,34,35,36,37,38,39,40,0,1,2,3,4,5,6,7,8,9,10,11,12,13,14,15,16,17,18,19,20,21,22,23,24,25,26,27,28,29,30,31,32,33,34,35,36,37,38,39,40,0,1,2,3,4,5,6,7,8,9,10,11,12,13,14,15,16,17,18,19,20,21,22,23,24,25,26,27,28,29,30,31,32,33,34,35,36,37,38,39,40,0,1,2,3,4,5,6,7,8,9,10,11,12,13,14,15,16,17,18,19,20,21,22,23,24,25,26,27,28,29,30,31,32,33,34,35,36,37,38,39,40,0,1,2,3,4,5,6,7,8,9,10,11,12,13,14,15,16,17,18,19,20,21,22,23,24,25,26,27,28,29,30,31,32,33,34,35,36,37,38,39,40,0,1,2,3,4,5,6,7,8,9,10,11,12,13,14,15,16,17,18,19,20,21,22,23,24,25,26,27,28,29,30,31,32,33,34,35,36,37,38,39,40,0,1,2,3,4,5,6,7,8,9,10,11,12,13,14,15,16,17,18,19,20,21,22,23,24,25,26,27,28,29,30,31,32,33,34,35,36,37,38,39,40,0,1,2,3,4,5,6,7,8,9,10,11,12,13,14,15,16,17,18,19,20,21,22,23,24,25,26,27,28,29,30,31,32,33,34,35,36,37,38,39,40,0,1,2,3,4,5,6,7,8,9,10,11,12,13,14,15,16,17,18,19,20,21,22,23,24,25,26,27,28,29,30,31,32,33,34,35,36,37,38,39,40,0,1,2,3,4,5,6,7,8,9,10,11,12,13,14,15,16,17,18,19,20,21,22,23,24,25,26,27,28,29,30,31,32,33,34,35,36,37,38,39,40,0,1,2,3,4,5,6,7,8,9,10,11,12,13,14,15,16,17,18,19,20,21,22,23,24,25,26,27,28,29,30,31,32,33,34,35,36,37,38,39,40,0,1,2,3,4,5,6,7,8,9,10,11,12,13,14,15,16,17,18,19,20,21,22,23,24,25,26,27,28,29,30,31,32,33,34,35,36,37,38,39,40,0,1,2,3,4,5,6,7,8,9,10,11,12,13,14,15,16,17,18,19,20,21,22,23,24,25,26,27,28,29,30,31,32,33,34,35,36,37,38,39,40,0,1,2,3,4,5,6,7,8,9,10,11,12,13,14,15,16,17,18,19,20,21,22,23,24,25,26,27,28,29,30,31,32,33,34,35,36,37,38,39,40,0,1,2,3,4,5,6,7,8,9,10,11,12,13,14,15,16,17,18,19,20,21,22,23,24,25,26,27,28,29,30,31,32,33,34,35,36,37,38,39,40,0,1,2,3,4,5,6,7,8,9,10,11,12,13,14,15,16,17,18,19,20,21,22,23,24,25,26,27,28,29,30,31,32,33,34,35,36,37,38,39,40,0,1,2,3,4,5,6,7,8,9,10,11,12,13,14,15,16,17,18,19,20,21,22,23,24,25,26,27,28,29,30,31,32,33,34,35,36,37,38,39,40,0,1,2,3,4,5,6,7,8,9,10,11,12,13,14,15,16,17,18,19,20,21,22,23,24,25,26,27,28,29,30,31,32,33,34,35,36,37,38,39,40,0,1,2,3,4,5,6,7,8,9,10,11,12,13,14,15,16,17,18,19,20,21,22,23,24,25,26,27,28,29,30,31,32,33,34,35,36,37,38,39,40],"trees":[{"base_weights":[5.035641E-2,-4.7481915E-1,1.6071437E-1,-5.0164573E-3,-0E0],"categories":[],"categories_nodes":[],"categories_segments":[],"categories_sizes":[],"default_left":[0,0,0,0,0],"id":0,"left_children":[1,3,-1,-1,-1],"loss_changes":[1.286566E3,2.083702E0,0E0,0E0,0E0],"parents":[2147483647,0,0,1,1],"right_children":[2,4,-1,-1,-1],"split_conditions":[1E0,1E0,1.6071437E-1,-5.0164573E-3,-0E0],"split_indices":[119,61,0,0,0],"split_type":[0,0,0,0,0],"sum_hessian":[1.491493E2,1.4529446E2,3.8548481E0,1.3834622E2,6.9482446E0],"tree_param":{"num_deleted":"0","num_feature":"131","num_nodes":"5","size_leaf_vector":"1"}},{"base_weights":[-3.2229561E-4,-4.550046E-1,1.5481044E-1,-4.9867607E-3,-2.9777463E-3],"categories":[],"categories_nodes":[],"categories_segments":[],"categories_sizes":[],"default_left":[0,0,0,0,0],"id":1,"left_children":[1,3,-1,-1,-1],"loss_changes":[1.0573094E3,7.167435E-2,0E0,0E0,0E0],"parents":[2147483647,0,0,1,1],"right_children":[2,4,-1,-1,-1],"split_conditions":[1E0,1E0,1.5481044E-1,-4.9867607E-3,-2.9777463E-3],"split_indices":[38,45,0,0,0],"split_type":[0,0,0,0,0],"sum_hessian":[1.5033908E2,1.4705531E2,3.2837596E0,1.0841165E2,3.864366E1],"tree_param":{"num_deleted":"0","num_feature":"131","num_nodes":"5","size_leaf_vector":"1"}},{"base_weights":[-1.0379677E-2,-4.4789734E-1,1.5308002E-1,-5.0057904E-3,-6.73422E-4],"categories":[],"categories_nodes":[],"categories_segments":[],"categories_sizes":[],"default_left":[0,0,0,0,0],"id":2,"left_children":[1,3,-1,-1,-1],"loss_changes":[9.9990125E2,2.3504047E0,0E0,0E0,0E0],"parents":[2147483647,0,0,1,1],"right_children":[2,4,-1,-1,-1],"split_conditions":[1E0,1E0,1.5308002E-1,-5.0057904E-3,-6.73422E-4],"split_indices":[8,100,0,0,0],"split_type":[0,0,0,0,0],"sum_hessian":[1.4938727E2,1.4624628E2,3.1409874E0,1.2587745E2,2.0368828E1],"tree_param":{"num_deleted":"0","num_feature":"131","num_nodes":"5","size_leaf_vector":"1"}},{"base_weights":[-1.718592E-2,-4.818243E-3,1.553619E-1],"categories":[],"categories_nodes":[],"categories_segments":[],"categories_sizes":[],"default_left":[0,0,0],"id":3,"left_children":[1,-1,-1],"loss_changes":[1.0795782E3,0E0,0E0],"parents":[2147483647,0,0],"right_children":[2,-1,-1],"split_conditions":[1E0,-4.818243E-3,1.553619E-1],"split_indices":[47,0,0],"split_type":[0,0,0],"sum_hessian":[1.4943486E2,1.461035E2,3.3313503E0],"tree_param":{"num_deleted":"0","num_feature":"131","num_nodes":"3","size_leaf_vector":"1"}},{"base_weights":[-0E0,-4.5472604E-1,1.553619E-1,-5.0196946E-3,8.6958725E-3],"categories":[],"categories_nodes":[],"categories_segments":[],"categories_sizes":[],"default_left":[0,0,0,0,0],"id":4,"left_children":[1,3,-1,-1,-1],"loss_changes":[1.0759386E3,9.287317E0,0E0,0E0,0E0],"parents":[2147483647,0,0,1,1],"right_children":[2,4,-1,-1,-1],"split_conditions":[1E0,1E0,1.553619E-1,-5.0196946E-3,8.6958725E-3],"split_indices":[96,25,0,0,0],"split_type":[0,0,0,0,0],"sum_hessian":[1.496728E2,1.4634146E2,3.3313503E0,1.4262938E2,3.712076E0],"tree_param":{"num_deleted":"0","num_feature":"131","num_nodes":"5","size_leaf_vector":"1"}},{"base_weights":[6.938763E-3,-4.886839E-1,1.5890703E-1,-5.020111E-3,-0E0],"categories":[],"categories_nodes":[],"categories_segments":[],"categories_sizes":[],"default_left":[0,0,0,0,0],"id":5,"left_children":[1,3,-1,-1,-1],"loss_changes":[1.2130636E3,1.1197128E0,0E0,0E0,0E0],"parents":[2147483647,0,0,1,1],"right_children":[2,4,-1,-1,-1],"split_conditions":[1E0,1E0,1.5890703E-1,-5.020111E-3,-0E0],"split_indices":[66,105,0,0,0],"split_type":[0,0,0,0,0],"sum_hessian":[1.5014871E2,1.4648422E2,3.6644852E0,1.4320047E2,3.2837596E0],"tree_param":{"num_deleted":"0","num_feature":"131","num_nodes":"5","size_leaf_vector":"1"}},{"base_weights":[-7.632255E-2,-4.750869E-1,1.492347E-1,-5.0198333E-3,2.6430737E-3],"categories":[],"categories_nodes":[],"categories_segments":[],"categories_sizes":[],"default_left":[0,0,0,0,0],"id":6,"left_children":[1,3,-1,-1,-1],"loss_changes":[8.910267E2,3.3005486E0,0E0,0E0,0E0],"parents":[2147483647,0,0,1,1],"right_children":[2,4,-1,-1,-1],"split_conditions":[1E0,1E0,1.492347E-1,-5.0198333E-3,2.6430737E-3],"split_indices":[67,39,0,0,0],"split_type":[0,0,0,0,0],"sum_hessian":[1.491969E2,1.4634146E2,2.855443E0,1.4281975E2,3.521713E0],"tree_param":{"num_deleted":"0","num_feature":"131","num_nodes":"5","size_leaf_vector":"1"}},{"base_weights":[1.4218134E-2,-4.4126716E-1,1.5590139E-1,-5.0195544E-3,1.143502E-2],"categories":[],"categories_nodes":[],"categories_segments":[],"categories_sizes":[],"default_left":[0,0,0,0,0],"id":7,"left_children":[1,3,-1,-1,-1],"loss_changes":[1.0930178E3,1.4126175E1,0E0,0E0,0E0],"parents":[2147483647,0,0,1,1],"right_children":[2,4,-1,-1,-1],"split_conditions":[1E0,1E0,1.5590139E-1,-5.0195544E-3,1.143502E-2],"split_indices":[123,6,0,0,0],"split_type":[0,0,0,0,0],"sum_hessian":[1.4995836E2,1.465794E2,3.378941E0,1.4243901E2,4.1403923E0],"tree_param":{"num_deleted":"0","num_feature":"131","num_nodes":"5","size_leaf_vector":"1"}},{"base_weights":[-2.4594765E-2,-5.0214105E-3,8.8921385E0,1.569459E-1,-1.5545568E-3],"categories":[],"categories_nodes":[],"categories_segments":[],"categories_sizes":[],"default_left":[0,0,0,0,0],"id":8,"left_children":[1,-1,3,-1,-1],"loss_changes":[6.463768E2,0E0,4.9251514E2,0E0,0E0],"parents":[2147483647,0,0,2,2],"right_children":[2,-1,4,-1,-1],"split_conditions":[1E0,-5.0214105E-3,1E0,1.569459E-1,-1.5545568E-3],"split_indices":[90,0,6,0,0],"split_type":[0,0,0,0,0],"sum_hessian":[1.5171921E2,1.4500891E2,6.7102914E0,3.4741223E0,3.2361689E0],"tree_param":{"num_deleted":"0","num_feature":"131","num_nodes":"5","size_leaf_vector":"1"}},{"base_weights":[4.724466E-2,-4.7727767E-3,3.1334558E0,-1.0671249E-3,1.5794688E-1],"categories":[],"categories_nodes":[],"categories_segments":[],"categories_sizes":[],"default_left":[0,0,0,0,0],"id":9,"left_children":[1,-1,3,-1,-1],"loss_changes":[2.4567062E2,0E0,9.2330524E2,0E0,0E0],"parents":[2147483647,0,0,2,2],"right_children":[2,-1,4,-1,-1],"split_conditions":[1E0,-4.7727767E-3,1E0,-1.0671249E-3,1.5794688E-1],"split_indices":[55,0,71,0,0],"split_type":[0,0,0,0,0],"sum_hessian":[1.481975E2,1.2711481E2,2.1082687E1,1.7513384E1,3.5693038E0],"tree_param":{"num_deleted":"0","num_feature":"131","num_nodes":"5","size_leaf_vector":"1"}},{"base_weights":[-0E0,-5.0221146E-3,1.5890703E-1],"categories":[],"categories_nodes":[],"categories_segments":[],"categories_sizes":[],"default_left":[0,0,0],"id":10,"left_children":[1,-1,-1],"loss_changes":[1.2149279E3,0E0,0E0],"parents":[2147483647,0,0],"right_children":[2,-1,-1],"split_conditions":[1E0,-5.0221146E-3,1.5890703E-1],"split_indices":[22,0,0],"split_type":[0,0,0],"sum_hessian":[1.496728E2,1.4600832E2,3.6644852E0],"tree_param":{"num_deleted":"0","num_feature":"131","num_nodes":"3","size_leaf_vector":"1"}},{"base_weights":[-2.3528144E-2,-5.02343E-3,1.569459E-1],"categories":[],"categories_nodes":[],"categories_segments":[],"categories_sizes":[],"default_left":[0,0,0],"id":11,"left_children":[1,-1,-1],"loss_changes":[1.1395598E3,0E0,0E0],"parents":[2147483647,0,0],"right_children":[2,-1,-1],"split_conditions":[1E0,-5.02343E-3,1.569459E-1],"split_indices":[75,0,0],"split_type":[0,0,0],"sum_hessian":[1.5138608E2,1.4791196E2,3.4741223E0],"tree_param":{"num_deleted":"0","num_feature":"131","num_nodes":"3","size_leaf_vector":"1"}},{"base_weights":[1.6506378E-2,-5.023039E-3,1.6071437E-1],"categories":[],"categories_nodes":[],"categories_segments":[],"categories_sizes":[],"default_left":[0,0,0],"id":12,"left_children":[1,-1,-1],"loss_changes":[1.2913505E3,0E0,0E0],"parents":[2147483647,0,0],"right_children":[2,-1,-1],"split_conditions":[1E0,-5.023039E-3,1.6071437E-1],"split_indices":[48,0,0],"split_type":[0,0,0],"sum_hessian":[1.5119571E2,1.4734087E2,3.8548481E0],"tree_param":{"num_deleted":"0","num_feature":"131","num_nodes":"3","size_leaf_vector":"1"}},{"base_weights":[-2.4296653E-2,-4.886454E-1,1.553619E-1,-5.0194496E-3,-0E0],"categories":[],"categories_nodes":[],"categories_segments":[],"categories_sizes":[],"default_left":[0,0,0,0,0],"id":13,"left_children":[1,3,-1,-1,-1],"loss_changes":[1.0805417E3,9.4467545E-1,0E0,0E0,0E0],"parents":[2147483647,0,0,1,1],"right_children":[2,4,-1,-1,-1],"split_conditions":[1E0,1E0,1.553619E-1,-5.0194496E-3,-0E0],"split_indices":[54,23,0,0,0],"split_type":[0,0,0,0,0],"sum_hessian":[1.4957762E2,1.4624628E2,3.3313503E0,1.4229625E2,3.9500296E0],"tree_param":{"num_deleted":"0","num_feature":"131","num_nodes":"5","size_leaf_vector":"1"}},{"base_weights":[1.1739082E-2,-4.3489158E-1,1.553619E-1,-5.0203186E-3,1.4468816E-2],"categories":[],"categories_nodes":[],"categories_segments":[],"categories_sizes":[],"default_left":[0,0,0,0,0],"id":14,"left_children":[1,3,-1,-1,-1],"loss_changes":[1.0735068E3,1.8523333E1,0E0,0E0,0E0],"parents":[2147483647,0,0,1,1],"right_children":[2,4,-1,-1,-1],"split_conditions":[1E0,1E0,1.553619E-1,-5.0203186E-3,1.4468816E-2],"split_indices":[104,17,0,0,0],"split_type":[0,0,0,0,0],"sum_hessian":[1.5067221E2,1.4734087E2,3.3313503E0,1.4348601E2,3.8548481E0],"tree_param":{"num_deleted":"0","num_feature":"131","num_nodes":"5","size_leaf_vector":"1"}},{"base_weights":[-3.8178485E-2,-4.6839967E-1,1.524764E-1,-5.007899E-3,-1.7874454E-3],"categories":[],"categories_nodes":[],"categories_segments":[],"categories_sizes":[],"default_left":[0,0,0,0,0],"id":15,"left_children":[1,3,-1,-1,-1],"loss_changes":[9.838556E2,6.164322E-1,0E0,0E0,0E0],"parents":[2147483647,0,0,1,1],"right_children":[2,4,-1,-1,-1],"split_conditions":[1E0,1E0,1.524764E-1,-5.007899E-3,-1.7874454E-3],"split_indices":[32,55,0,0,0],"split_type":[0,0,0,0,0],"sum_hessian":[1.4976799E2,1.4667459E2,3.0933967E0,1.281618E2,1.8512789E1],"tree_param":{"num_deleted":"0","num_feature":"131","num_nodes":"5","size_leaf_vector":"1"}},{"base_weights":[-0E0,-4.6849892E-1,1.569459E-1,-5.0203875E-3,5.0692116E-3],"categories":[],"categories_nodes":[],"categories_segments":[],"categories_sizes":[],"default_left":[0,0,0,0,0],"id":16,"left_children":[1,3,-1,-1,-1],"loss_changes":[1.1345529E3,5.0917473E0,0E0,0E0,0E0],"parents":[2147483647,0,0,1,1],"right_children":[2,4,-1,-1,-1],"split_conditions":[1E0,1E0,1.569459E-1,-5.0203875E-3,5.0692116E-3],"split_indices":[118,107,0,0,0],"split_type":[0,0,0,0,0],"sum_hessian":[1.5048184E2,1.4700772E2,3.4741223E0,1.4358119E2,3.4265318E0],"tree_param":{"num_deleted":"0","num_feature":"131","num_nodes":"5","size_leaf_vector":"1"}},{"base_weights":[-1.2751889E-2,-4.4820905E-1,1.5308002E-1,-5.0120195E-3,-0E0],"categories":[],"categories_nodes":[],"categories_segments":[],"categories_sizes":[],"default_left":[0,0,0,0,0],"id":17,"left_children":[1,3,-1,-1,-1],"loss_changes":[1.0000774E3,3.9055176E0,0E0,0E0,0E0],"parents":[2147483647,0,0,1,1],"right_children":[2,4,-1,-1,-1],"split_conditions":[1E0,1E0,1.5308002E-1,-5.0120195E-3,-0E0],"split_indices":[108,31,0,0,0],"split_type":[0,0,0,0,0],"sum_hessian":[1.5010112E2,1.4696013E2,3.1409874E0,1.3287329E2,1.4086852E1],"tree_param":{"num_deleted":"0","num_feature":"131","num_nodes":"5","size_leaf_vector":"1"}},{"base_weights":[-0E0,-4.2873776E-1,4.1855297E0,-5.0054765E-3,2.8698568E-3,1.3390608E-1,-3.6468809E-3],"categories":[],"categories_nodes":[],"categories_segments":[],"categories_sizes":[],"default_left":[0,0,0,0,0,0,0],"id":18,"left_children":[1,3,5,-1,-1,-1,-1],"loss_changes":[2.6955618E2,7.421215E0,6.0198364E2,0E0,0E0,0E0,0E0],"parents":[2147483647,0,0,1,1,2,2],"right_children":[2,4,6,-1,-1,-1,-1],"split_conditions":[1E0,1E0,1E0,-5.0054765E-3,2.8698568E-3,1.3390608E-1,-3.6468809E-3],"split_indices":[14,18,41,0,0,0,0],"split_type":[0,0,0,0,0,0,0],"sum_hessian":[1.4938727E2,1.3644258E2,1.2944675E1,1.2554431E2,1.0898274E1,3.712076E0,9.232599E0],"tree_param":{"num_deleted":"0","num_feature":"131","num_nodes":"7","size_leaf_vector":"1"}},{"base_weights":[-6.1003868E-2,-5.0216797E-3,1.5308002E-1],"categories":[],"categories_nodes":[],"categories_segments":[],"categories_sizes":[],"default_left":[0,0,0],"id":19,"left_children":[1,-1,-1],"loss_changes":[1.00673706E3,0E0,0E0],"parents":[2147483647,0,0],"right_children":[2,-1,-1],"split_conditions":[1E0,-5.0216797E-3,1.5308002E-1],"split_indices":[87,0,0],"split_type":[0,0,0],"sum_hessian":[1.4853062E2,1.4538965E2,3.1409874E0],"tree_param":{"num_deleted":"0","num_feature":"131","num_nodes":"3","size_leaf_vector":"1"}},{"base_weights":[-5.3183727E-2,-4.7447276E-3,8.096848E0,-0E0,1.5122601E-1],"categories":[],"categories_nodes":[],"categories_segments":[],"categories_sizes":[],"default_left":[0,0,0,0,0],"id":20,"left_children":[1,-1,3,-1,-1],"loss_changes":[5.15845E2,0E0,4.3072568E2,0E0,0E0],"parents":[2147483647,0,0,2,2],"right_children":[2,-1,4,-1,-1],"split_conditions":[1E0,-4.7447276E-3,1E0,-0E0,1.5122601E-1],"split_indices":[39,0,71,0,0],"split_type":[0,0,0,0,0],"sum_hessian":[1.5033908E2,1.4396191E2,6.3771563E0,3.378941E0,2.9982152E0],"tree_param":{"num_deleted":"0","num_feature":"131","num_nodes":"5","size_leaf_vector":"1"}},{"base_weights":[1.2049098E-2,-4.628291E-1,3.5942862E0,-4.999729E-3,-0E0,-0E0,6.2181327E-2],"categories":[],"categories_nodes":[],"categories_segments":[],"categories_sizes":[],"default_left":[0,0,0,0,0,0,0],"id":21,"left_children":[1,3,5,-1,-1,-1,-1],"loss_changes":[2.5617004E2,2.0954685E0,1.712198E2,0E0,0E0,0E0,0E0],"parents":[2147483647,0,0,1,1,2,2],"right_children":[2,4,6,-1,-1,-1,-1],"split_conditions":[1E0,1E0,1E0,-4.999729E-3,-0E0,-0E0,6.2181327E-2],"split_indices":[28,129,71,0,0,0,0],"split_type":[0,0,0,0,0,0,0],"sum_hessian":[1.4676978E2,1.3011302E2,1.6656752E1,1.1973824E2,1.0374777E1,7.3289704E0,9.327781E0],"tree_param":{"num_deleted":"0","num_feature":"131","num_nodes":"7","size_leaf_vector":"1"}},{"base_weights":[-6.6125754E-4,-5.019973E-3,1.5745166E-1],"categories":[],"categories_nodes":[],"categories_segments":[],"categories_sizes":[],"default_left":[0,0,0],"id":22,"left_children":[1,-1,-1],"loss_changes":[1.1572697E3,0E0,0E0],"parents":[2147483647,0,0],"right_children":[2,-1,-1],"split_conditions":[1E0,-5.019973E-3,1.5745166E-1],"split_indices":[21,0,0],"split_type":[0,0,0],"sum_hessian":[1.4653181E2,1.430101E2,3.521713E0],"tree_param":{"num_deleted":"0","num_feature":"131","num_nodes":"3","size_leaf_vector":"1"}},{"base_weights":[1.0230504E-2,-4.885292E-1,1.5890703E-1,-5.016679E-3,-6.791655E-4],"categories":[],"categories_nodes":[],"categories_segments":[],"categories_sizes":[],"default_left":[0,0,0,0,0],"id":23,"left_children":[1,3,-1,-1,-1],"loss_changes":[1.2128058E3,2.0612335E-1,0E0,0E0,0E0],"parents":[2147483647,0,0,1,1],"right_children":[2,4,-1,-1,-1],"split_conditions":[1E0,1E0,1.5890703E-1,-5.016679E-3,-6.791655E-4],"split_indices":[58,61,0,0,0],"split_type":[0,0,0,0,0],"sum_hessian":[1.491969E2,1.4553241E2,3.6644852E0,1.3863176E2,6.900654E0],"tree_param":{"num_deleted":"0","num_feature":"131","num_nodes":"5","size_leaf_vector":"1"}},{"base_weights":[1.6218321E-2,-5.0192387E-3,8.97976E0,-1.8148677E-3,1.6027597E-1],"categories":[],"categories_nodes":[],"categories_segments":[],"categories_sizes":[],"default_left":[0,0,0,0,0],"id":24,"left_children":[1,-1,3,-1,-1],"loss_changes":[7.1144196E2,0E0,5.5960406E2,0E0,0E0],"parents":[2147483647,0,0,2,2],"right_children":[2,-1,4,-1,-1],"split_conditions":[1E0,-5.0192387E-3,1E0,-1.8148677E-3,1.6027597E-1],"split_indices":[70,0,1,0,0],"split_type":[0,0,0,0,0],"sum_hessian":[1.4938727E2,1.420107E2,7.376561E0,3.5693038E0,3.8072574E0],"tree_param":{"num_deleted":"0","num_feature":"131","num_nodes":"5","size_leaf_vector":"1"}},{"base_weights":[-2.971706E-2,-5.0219814E-3,1.5590139E-1],"categories":[],"categories_nodes":[],"categories_segments":[],"categories_sizes":[],"default_left":[0,0,0],"id":25,"left_children":[1,-1,-1],"loss_changes":[1.1012074E3,0E0,0E0],"parents":[2147483647,0,0],"right_children":[2,-1,-1],"split_conditions":[1E0,-5.0219814E-3,1.5590139E-1],"split_indices":[79,0,0],"split_type":[0,0,0],"sum_hessian":[1.491969E2,1.4581796E2,3.378941E0],"tree_param":{"num_deleted":"0","num_feature":"131","num_nodes":"3","size_leaf_vector":"1"}},{"base_weights":[1.2894088E-2,-5.021173E-3,1.5982877E-1],"categories":[],"categories_nodes":[],"categories_segments":[],"categories_sizes":[],"default_left":[0,0,0],"id":26,"left_children":[1,-1,-1],"loss_changes":[1.2525713E3,0E0,0E0],"parents":[2147483647,0,0],"right_children":[2,-1,-1],"split_conditions":[1E0,-5.021173E-3,1.5982877E-1],"split_indices":[15,0,0],"split_type":[0,0,0],"sum_hessian":[1.4843546E2,1.4467578E2,3.7596667E0],"tree_param":{"num_deleted":"0","num_feature":"131","num_nodes":"3","size_leaf_vector":"1"}},{"base_weights":[1.2894088E-2,-4.747085E-3,1.5794688E-1],"categories":[],"categories_nodes":[],"categories_segments":[],"categories_sizes":[],"default_left":[0,0,0],"id":27,"left_children":[1,-1,-1],"loss_changes":[1.17276E3,0E0,0E0],"parents":[2147483647,0,0],"right_children":[2,-1,-1],"split_conditions":[1E0,-4.747085E-3,1.5794688E-1],"split_indices":[10,0,0],"split_type":[0,0,0],"sum_hessian":[1.4843546E2,1.4486615E2,3.5693038E0],"tree_param":{"num_deleted":"0","num_feature":"131","num_nodes":"3","size_leaf_vector":"1"}},{"base_weights":[1.6218321E-2,-4.79242E-3,4.3591914E0,-1.4213171E-3,1.5745166E-1],"categories":[],"categories_nodes":[],"categories_segments":[],"categories_sizes":[],"default_left":[0,0,0,0,0],"id":28,"left_children":[1,-1,3,-1,-1],"loss_changes":[3.2956796E2,0E0,8.2278E2,0E0,0E0],"parents":[2147483647,0,0,2,2],"right_children":[2,-1,4,-1,-1],"split_conditions":[1E0,-4.79242E-3,1E0,-1.4213171E-3,1.5745166E-1],"split_indices":[126,0,28,0,0],"split_type":[0,0,0,0,0],"sum_hessian":[1.4938727E2,1.3468173E2,1.4705532E1,1.1183819E1,3.521713E0],"tree_param":{"num_deleted":"0","num_feature":"131","num_nodes":"5","size_leaf_vector":"1"}},{"base_weights":[-1.1489505E-2,-5.014225E-3,4.329572E0,-1.3018495E-3,1.5590139E-1],"categories":[],"categories_nodes":[],"categories_segments":[],"categories_sizes":[],"default_left":[0,0,0,0,0],"id":29,"left_children":[1,-1,3,-1,-1],"loss_changes":[3.1889938E2,0E0,7.79922E2,0E0,0E0],"parents":[2147483647,0,0,2,2],"right_children":[2,-1,4,-1,-1],"split_conditions":[1E0,-5.014225E-3,1E0,-1.3018495E-3,1.5590139E-1],"split_indices":[68,0,109,0,0],"split_type":[0,0,0,0,0],"sum_hessian":[1.497204E2,1.3553836E2,1.4182034E1,1.0803093E1,3.378941E0],"tree_param":{"num_deleted":"0","num_feature":"131","num_nodes":"5","size_leaf_vector":"1"}},{"base_weights":[-0E0,-4.613478E-1,1.553619E-1,-5.0194496E-3,6.939201E-3],"categories":[],"categories_nodes":[],"categories_segments":[],"categories_sizes":[],"default_left":[0,0,0,0,0],"id":30,"left_children":[1,3,-1,-1,-1],"loss_changes":[1.0767311E3,7.0444183E0,0E0,0E0,0E0],"parents":[2147483647,0,0,1,1],"right_children":[2,4,-1,-1,-1],"split_conditions":[1E0,1E0,1.553619E-1,-5.0194496E-3,6.939201E-3],"split_indices":[120,2,0,0,0],"split_type":[0,0,0,0,0],"sum_hessian":[1.491969E2,1.4586555E2,3.3313503E0,1.4229625E2,3.5693038E0],"tree_param":{"num_deleted":"0","num_feature":"131","num_nodes":"5","size_leaf_vector":"1"}},{"base_weights":[-1.7655559E-2,-4.7507483E-1,1.5481044E-1,-5.019729E-3,2.4829279E-3],"categories":[],"categories_nodes":[],"categories_segments":[],"categories_sizes":[],"default_left":[0,0,0,0,0],"id":31,"left_children":[1,3,-1,-1,-1],"loss_changes":[1.0598544E3,3.2442474E0,0E0,0E0,0E0],"parents":[2147483647,0,0,1,1],"right_children":[2,4,-1,-1,-1],"split_conditions":[1E0,1E0,1.5481044E-1,-5.019729E-3,2.4829279E-3],"split_indices":[46,72,0,0,0],"split_type":[0,0,0,0,0],"sum_hessian":[1.4957762E2,1.4629387E2,3.2837596E0,1.4267697E2,3.6168945E0],"tree_param":{"num_deleted":"0","num_feature":"131","num_nodes":"5","size_leaf_vector":"1"}},{"base_weights":[-9.460978E-3,-4.7543407E-3,1.5590139E-1],"categories":[],"categories_nodes":[],"categories_segments":[],"categories_sizes":[],"default_left":[0,0,0],"id":32,"left_children":[1,-1,-1],"loss_changes":[1.0979152E3,0E0,0E0],"parents":[2147483647,0,0],"right_children":[2,-1,-1],"split_conditions":[1E0,-4.7543407E-3,1.5590139E-1],"split_indices":[4,0,0],"split_type":[0,0,0],"sum_hessian":[1.5110052E2,1.4772159E2,3.378941E0],"tree_param":{"num_deleted":"0","num_feature":"131","num_nodes":"3","size_leaf_vector":"1"}},{"base_weights":[4.4225745E-2,-4.9529776E-1,1.6156593E-1,-5.018992E-3,-0E0],"categories":[],"categories_nodes":[],"categories_segments":[],"categories_sizes":[],"default_left":[0,0,0,0,0],"id":33,"left_children":[1,3,-1,-1,-1],"loss_changes":[1.3276705E3,1.103096E-1,0E0,0E0,0E0],"parents":[2147483647,0,0,1,1],"right_children":[2,4,-1,-1,-1],"split_conditions":[1E0,1E0,1.6156593E-1,-5.018992E-3,-0E0],"split_indices":[51,49,0,0,0],"split_type":[0,0,0,0,0],"sum_hessian":[1.4900653E2,1.450565E2,3.9500296E0,1.4167757E2,3.378941E0],"tree_param":{"num_deleted":"0","num_feature":"131","num_nodes":"5","size_leaf_vector":"1"}},{"base_weights":[-1.4164488E-2,-5.0228094E-3,1.5745166E-1],"categories":[],"categories_nodes":[],"categories_segments":[],"categories_sizes":[],"default_left":[0,0,0],"id":34,"left_children":[1,-1,-1],"loss_changes":[1.158289E3,0E0,0E0],"parents":[2147483647,0,0],"right_children":[2,-1,-1],"split_conditions":[1E0,-5.0228094E-3,1.5745166E-1],"split_indices":[94,0,0],"split_type":[0,0,0],"sum_hessian":[1.5052943E2,1.4700772E2,3.521713E0],"tree_param":{"num_deleted":"0","num_feature":"131","num_nodes":"3","size_leaf_vector":"1"}},{"base_weights":[-3.7301767E-3,-4.8179454E-3,1.5642925E-1],"categories":[],"categories_nodes":[],"categories_segments":[],"categories_sizes":[],"default_left":[0,0,0],"id":35,"left_children":[1,-1,-1],"loss_changes":[1.1172886E3,0E0,0E0],"parents":[2147483647,0,0],"right_children":[2,-1,-1],"split_conditions":[1E0,-4.8179454E-3,1.5642925E-1],"split_indices":[50,0,0],"split_type":[0,0,0],"sum_hessian":[1.4938727E2,1.4596072E2,3.4265318E0],"tree_param":{"num_deleted":"0","num_feature":"131","num_nodes":"3","size_leaf_vector":"1"}},{"base_weights":[6.5328283E-3,-5.021139E-3,1.5937257E-1],"categories":[],"categories_nodes":[],"categories_segments":[],"categories_sizes":[],"default_left":[0,0,0],"id":36,"left_children":[1,-1,-1],"loss_changes":[1.2335583E3,0E0,0E0],"parents":[2147483647,0,0],"right_children":[2,-1,-1],"split_conditions":[1E0,-5.021139E-3,1.5937257E-1],"split_indices":[11,0,0],"split_type":[0,0,0],"sum_hessian":[1.4834027E2,1.4462819E2,3.712076E0],"tree_param":{"num_deleted":"0","num_feature":"131","num_nodes":"3","size_leaf_vector":"1"}},{"base_weights":[7.5937905E-3,-4.75099E-1,1.5794688E-1,-5.019973E-3,2.8963462E-3],"categories":[],"categories_nodes":[],"categories_segments":[],"categories_sizes":[],"default_left":[0,0,0,0,0],"id":37,"left_children":[1,3,-1,-1,-1],"loss_changes":[1.1731742E3,3.389553E0,0E0,0E0,0E0],"parents":[2147483647,0,0,1,1],"right_children":[2,4,-1,-1,-1],"split_conditions":[1E0,1E0,1.5794688E-1,-5.019973E-3,2.8963462E-3],"split_indices":[7,23,0,0,0],"split_type":[0,0,0,0,0],"sum_hessian":[1.4995836E2,1.4638905E2,3.5693038E0,1.430101E2,3.378941E0],"tree_param":{"num_deleted":"0","num_feature":"131","num_nodes":"5","size_leaf_vector":"1"}},{"base_weights":[1.4716761E-2,-4.7505063E-1,1.584319E-1,-5.0196243E-3,2.4053059E-3],"categories":[],"categories_nodes":[],"categories_segments":[],"categories_sizes":[],"default_left":[0,0,0,0,0],"id":38,"left_children":[1,3,-1,-1,-1],"loss_changes":[1.1920575E3,3.2168617E0,0E0,0E0,0E0],"parents":[2147483647,0,0,1,1],"right_children":[2,4,-1,-1,-1],"split_conditions":[1E0,1E0,1.584319E-1,-5.0196243E-3,2.4053059E-3],"split_indices":[24,17,0,0,0],"split_type":[0,0,0,0,0],"sum_hessian":[1.4981558E2,1.4619868E2,3.6168945E0,1.425342E2,3.6644852E0],"tree_param":{"num_deleted":"0","num_feature":"131","num_nodes":"5","size_leaf_vector":"1"}},{"base_weights":[-2.2593444E-2,-4.885603E-1,1.553619E-1,-5.019344E-3,-0E0],"categories":[],"categories_nodes":[],"categories_segments":[],"categories_sizes":[],"default_left":[0,0,0,0,0],"id":39,"left_children":[1,3,-1,-1,-1],"loss_changes":[1.0804169E3,1.0443916E0,0E0,0E0,0E0],"parents":[2147483647,0,0,1,1],"right_children":[2,4,-1,-1,-1],"split_conditions":[1E0,1E0,1.553619E-1,-5.019344E-3,-0E0],"split_indices":[84,74,0,0,0],"split_type":[0,0,0,0,0],"sum_hessian":[1.4905412E2,1.4572278E2,3.3313503E0,1.4215347E2,3.5693038E0],"tree_param":{"num_deleted":"0","num_feature":"131","num_nodes":"5","size_leaf_vector":"1"}},{"base_weights":[-5.3472422E-2,-5.017303E-3,5.1166115E0,-3.397867E-3,1.542466E-1],"categories":[],"categories_nodes":[],"categories_segments":[],"categories_sizes":[],"default_left":[0,0,0,0,0],"id":40,"left_children":[1,-1,3,-1,-1],"loss_changes":[3.489059E2,0E0,6.948956E2,0E0,0E0],"parents":[2147483647,0,0,2,2],"right_children":[2,-1,4,-1,-1],"split_conditions":[1E0,-5.017303E-3,1E0,-3.397867E-3,1.542466E-1],"split_indices":[64,0,56,0,0],"split_type":[0,0,0,0,0],"sum_hessian":[1.5043427E2,1.394408E2,1.0993456E1,7.757287E0,3.2361689E0],"tree_param":{"num_deleted":"0","num_feature":"131","num_nodes":"5","size_leaf_vector":"1"}},{"base_weights":[-2.6533168E-2,-4.8184016E-1,1.3637406E-1,-5.0167846E-3,-0E0],"categories":[],"categories_nodes":[],"categories_segments":[],"categories_sizes":[],"default_left":[0,0,0,0,0],"id":41,"left_children":[1,3,-1,-1,-1],"loss_changes":[9.344999E2,1.1267052E0,0E0,0E0,0E0],"parents":[2147483647,0,0,1,1],"right_children":[2,4,-1,-1,-1],"split_conditions":[1E0,1E0,1.3637406E-1,-5.0167846E-3,-0E0],"split_indices":[119,61,0,0,0],"split_type":[0,0,0,0,0],"sum_hessian":[1.5026845E2,1.4642715E2,3.8412936E0,1.394747E2,6.952447E0],"tree_param":{"num_deleted":"0","num_feature":"131","num_nodes":"5","size_leaf_vector":"1"}},{"base_weights":[-3.8985163E-2,-4.6829274E-3,1.363201E-1],"categories":[],"categories_nodes":[],"categories_segments":[],"categories_sizes":[],"default_left":[0,0,0],"id":42,"left_children":[1,-1,-1],"loss_changes":[8.795844E2,0E0,0E0],"parents":[2147483647,0,0],"right_children":[2,-1,-1],"split_conditions":[1E0,-4.6829274E-3,1.363201E-1],"split_indices":[81,0,0],"split_type":[0,0,0],"sum_hessian":[1.5002318E2,1.4646274E2,3.560448E0],"tree_param":{"num_deleted":"0","num_feature":"131","num_nodes":"3","size_leaf_vector":"1"}},{"base_weights":[-2.1550922E-2,-4.5423746E-1,1.3741085E-1,-5.0033433E-3,-1.3124463E-3],"categories":[],"categories_nodes":[],"categories_segments":[],"categories_sizes":[],"default_left":[0,0,0,0,0],"id":43,"left_children":[1,3,-1,-1,-1],"loss_changes":[8.8460785E2,1.4796467E0,0E0,0E0,0E0],"parents":[2147483647,0,0,1,1],"right_children":[2,4,-1,-1,-1],"split_conditions":[1E0,1E0,1.3741085E-1,-5.0033433E-3,-1.3124463E-3],"split_indices":[86,100,0,0,0],"split_type":[0,0,0,0,0],"sum_hessian":[1.4873413E2,1.4520854E2,3.5255878E0,1.2388311E2,2.132543E1],"tree_param":{"num_deleted":"0","num_feature":"131","num_nodes":"5","size_leaf_vector":"1"}},{"base_weights":[-0E0,-4.8144967E-3,1.3861932E-1],"categories":[],"categories_nodes":[],"categories_segments":[],"categories_sizes":[],"default_left":[0,0,0],"id":44,"left_children":[1,-1,-1],"loss_changes":[1.0029509E3,0E0,0E0],"parents":[2147483647,0,0],"right_children":[2,-1,-1],"split_conditions":[1E0,-4.8144967E-3,1.3861932E-1],"split_indices":[47,0,0],"split_type":[0,0,0],"sum_hessian":[1.4861652E2,1.4457257E2,4.043936E0],"tree_param":{"num_deleted":"0","num_feature":"131","num_nodes":"3","size_leaf_vector":"1"}},{"base_weights":[2.241925E-3,-4.680074E-1,1.3861986E-1,-5.0185667E-3,4.4819093E-3],"categories":[],"categories_nodes":[],"categories_segments":[],"categories_sizes":[],"default_left":[0,0,0,0,0],"id":45,"left_children":[1,3,-1,-1,-1],"loss_changes":[1.00130786E3,4.823143E0,0E0,0E0,0E0],"parents":[2147483647,0,0,1,1],"right_children":[2,4,-1,-1,-1],"split_conditions":[1E0,1E0,1.3861986E-1,-5.0185667E-3,4.4819093E-3],"split_indices":[96,25,0,0,0],"split_type":[0,0,0,0,0],"sum_hessian":[1.4958244E2,1.4553851E2,4.0439167E0,1.4184183E2,3.696695E0],"tree_param":{"num_deleted":"0","num_feature":"131","num_nodes":"5","size_leaf_vector":"1"}},{"base_weights":[-1.6500965E-2,-4.9526417E-1,1.3783675E-1,-5.018495E-3,-0E0],"categories":[],"categories_nodes":[],"categories_segments":[],"categories_sizes":[],"default_left":[0,0,0,0,0],"id":46,"left_children":[1,3,-1,-1,-1],"loss_changes":[9.860763E2,8.447647E-2,0E0,0E0,0E0],"parents":[2147483647,0,0,1,1],"right_children":[2,4,-1,-1,-1],"split_conditions":[1E0,1E0,1.3783675E-1,-5.018495E-3,-0E0],"split_indices":[66,105,0,0,0],"split_type":[0,0,0,0,0],"sum_hessian":[1.4922484E2,1.4522325E2,4.001589E0,1.417463E2,3.476942E0],"tree_param":{"num_deleted":"0","num_feature":"131","num_nodes":"5","size_leaf_vector":"1"}},{"base_weights":[-3.2951828E-2,-4.8184773E-1,1.3719979E-1,-5.019406E-3,4.7569198E-4],"categories":[],"categories_nodes":[],"categories_segments":[],"categories_sizes":[],"default_left":[0,0,0,0,0],"id":47,"left_children":[1,3,-1,-1,-1],"loss_changes":[9.268875E2,2.0469322E0,0E0,0E0,0E0],"parents":[2147483647,0,0,1,1],"right_children":[2,4,-1,-1,-1],"split_conditions":[1E0,1E0,1.3719979E-1,-5.019406E-3,4.7569198E-4],"split_indices":[67,39,0,0,0],"split_type":[0,0,0,0,0],"sum_hessian":[1.502099E2,1.4646689E2,3.743006E0,1.4298111E2,3.4857783E0],"tree_param":{"num_deleted":"0","num_feature":"131","num_nodes":"5","size_leaf_vector":"1"}},{"base_weights":[8.397118E-3,-4.408624E-1,1.373532E-1,-5.018667E-3,1.2096779E-2],"categories":[],"categories_nodes":[],"categories_segments":[],"categories_sizes":[],"default_left":[0,0,0,0,0],"id":48,"left_children":[1,3,-1,-1,-1],"loss_changes":[9.488511E2,1.4685101E1,0E0,0E0,0E0],"parents":[2147483647,0,0,1,1],"right_children":[2,4,-1,-1,-1],"split_conditions":[1E0,1E0,1.373532E-1,-5.018667E-3,1.2096779E-2],"split_indices":[123,72,0,0,0],"split_type":[0,0,0,0,0],"sum_hessian":[1.4972299E2,1.4584477E2,3.8782244E0,1.4190184E2,3.9429219E0],"tree_param":{"num_deleted":"0","num_feature":"131","num_nodes":"5","size_leaf_vector":"1"}},{"base_weights":[1.6986319E-3,-5.0199586E-3,8.263495E0,1.4075404E-1,-1.8107354E-3],"categories":[],"categories_nodes":[],"categories_segments":[],"categories_sizes":[],"default_left":[0,0,0,0,0],"id":49,"left_children":[1,-1,3,-1,-1],"loss_changes":[6.4729987E2,0E0,4.5546484E2,0E0,0E0],"parents":[2147483647,0,0,2,2],"right_children":[2,-1,4,-1,-1],"split_conditions":[1E0,-5.0199586E-3,1E0,1.4075404E-1,-1.8107354E-3],"split_indices":[90,0,6,0,0],"split_type":[0,0,0,0,0],"sum_hessian":[1.5168582E2,1.4374063E2,7.9451923E0,4.3813686E0,3.5638235E0],"tree_param":{"num_deleted":"0","num_feature":"131","num_nodes":"5","size_leaf_vector":"1"}},{"base_weights":[5.6250066E-2,-4.6942806E-1,2.9989614E0,-4.9888287E-3,-1.9997053E-3,-1.6856433E-3,1.3990068E-1],"categories":[],"categories_nodes":[],"categories_segments":[],"categories_sizes":[],"default_left":[0,0,0,0,0,0,0],"id":50,"left_children":[1,3,5,-1,-1,-1,-1],"loss_changes":[2.3651152E2,2.1837997E-1,8.242481E2,0E0,0E0,0E0,0E0],"parents":[2147483647,0,0,1,1,2,2],"right_children":[2,4,6,-1,-1,-1,-1],"split_conditions":[1E0,1E0,1E0,-4.9888287E-3,-1.9997053E-3,-1.6856433E-3,1.3990068E-1],"split_indices":[55,130,71,0,0,0,0],"split_type":[0,0,0,0,0,0,0],"sum_hessian":[1.4934673E2,1.27136116E2,2.2210604E1,1.1049513E2,1.6640987E1,1.7935465E1,4.275138E0],"tree_param":{"num_deleted":"0","num_feature":"131","num_nodes":"7","size_leaf_vector":"1"}},{"base_weights":[3.1498503E-2,-5.0216094E-3,1.419286E-1],"categories":[],"categories_nodes":[],"categories_segments":[],"categories_sizes":[],"default_left":[0,0,0],"id":51,"left_children":[1,-1,-1],"loss_changes":[1.1670685E3,0E0,0E0],"parents":[2147483647,0,0],"right_children":[2,-1,-1],"split_conditions":[1E0,-5.0216094E-3,1.419286E-1],"split_indices":[22,0,0],"split_type":[0,0,0],"sum_hessian":[1.5067372E2,1.4606337E2,4.6103544E0],"tree_param":{"num_deleted":"0","num_feature":"131","num_nodes":"3","size_leaf_vector":"1"}},{"base_weights":[1.8136937E-2,-5.0204364E-3,1.4114806E-1],"categories":[],"categories_nodes":[],"categories_segments":[],"categories_sizes":[],"default_left":[0,0,0],"id":52,"left_children":[1,-1,-1],"loss_changes":[1.1194489E3,0E0,0E0],"parents":[2147483647,0,0],"right_children":[2,-1,-1],"split_conditions":[1E0,-5.0204364E-3,1.4114806E-1],"split_indices":[75,0,0],"split_type":[0,0,0],"sum_hessian":[1.4884012E2,1.4440489E2,4.435232E0],"tree_param":{"num_deleted":"0","num_feature":"131","num_nodes":"3","size_leaf_vector":"1"}},{"base_weights":[-3.187903E-2,-5.021506E-3,1.3724129E-1],"categories":[],"categories_nodes":[],"categories_segments":[],"categories_sizes":[],"default_left":[0,0,0],"id":53,"left_children":[1,-1,-1],"loss_changes":[9.696614E2,0E0,0E0],"parents":[2147483647,0,0],"right_children":[2,-1,-1],"split_conditions":[1E0,-5.021506E-3,1.3724129E-1],"split_indices":[48,0,0],"split_type":[0,0,0],"sum_hessian":[1.4987073E2,1.4591846E2,3.9522684E0],"tree_param":{"num_deleted":"0","num_feature":"131","num_nodes":"3","size_leaf_vector":"1"}},{"base_weights":[-1.6560016E-2,-4.81624E-1,1.3805623E-1,-5.0182114E-3,-0E0],"categories":[],"categories_nodes":[],"categories_segments":[],"categories_sizes":[],"default_left":[0,0,0,0,0],"id":54,"left_children":[1,3,-1,-1,-1],"loss_changes":[9.591216E2,1.8946114E0,0E0,0E0,0E0],"parents":[2147483647,0,0,1,1],"right_children":[2,4,-1,-1,-1],"split_conditions":[1E0,1E0,1.3805623E-1,-5.0182114E-3,-0E0],"split_indices":[76,23,0,0,0],"split_type":[0,0,0,0,0],"sum_hessian":[1.4924368E2,1.4538939E2,3.8542979E0,1.4136636E2,4.02302E0],"tree_param":{"num_deleted":"0","num_feature":"131","num_nodes":"5","size_leaf_vector":"1"}},{"base_weights":[-0E0,-4.481128E-1,1.3700043E-1,-5.019588E-3,1.084353E-2],"categories":[],"categories_nodes":[],"categories_segments":[],"categories_sizes":[],"default_left":[0,0,0,0,0],"id":55,"left_children":[1,3,-1,-1,-1],"loss_changes":[9.3435724E2,1.2161932E1,0E0,0E0,0E0],"parents":[2147483647,0,0,1,1],"right_children":[2,4,-1,-1,-1],"split_conditions":[1E0,1E0,1.3700043E-1,-5.019588E-3,1.084353E-2],"split_indices":[104,107,0,0,0],"split_type":[0,0,0,0,0],"sum_hessian":[1.5066843E2,1.4684843E2,3.819984E0,1.4314381E2,3.704625E0],"tree_param":{"num_deleted":"0","num_feature":"131","num_nodes":"5","size_leaf_vector":"1"}},{"base_weights":[-0E0,-4.6871936E-1,1.3895376E-1,-5.008494E-3,-1.7836974E-3],"categories":[],"categories_nodes":[],"categories_segments":[],"categories_sizes":[],"default_left":[0,0,0,0,0],"id":56,"left_children":[1,3,-1,-1,-1],"loss_changes":[1.0043502E3,6.207199E-1,0E0,0E0,0E0],"parents":[2147483647,0,0,1,1],"right_children":[2,4,-1,-1,-1],"split_conditions":[1E0,1E0,1.3895376E-1,-5.008494E-3,-1.7836974E-3],"split_indices":[32,55,0,0,0],"split_type":[0,0,0,0,0],"sum_hessian":[1.5195317E2,1.4792093E2,4.032242E0,1.294292E2,1.8491728E1],"tree_param":{"num_deleted":"0","num_feature":"131","num_nodes":"5","size_leaf_vector":"1"}},{"base_weights":[-4.165229E-3,-4.6055835E-1,1.3636434E-1,-5.0173816E-3,6.9687986E-3],"categories":[],"categories_nodes":[],"categories_segments":[],"categories_sizes":[],"default_left":[0,0,0,0,0],"id":57,"left_children":[1,3,-1,-1,-1],"loss_changes":[9.1788074E2,7.054985E0,0E0,0E0,0E0],"parents":[2147483647,0,0,1,1],"right_children":[2,4,-1,-1,-1],"split_conditions":[1E0,1E0,1.3636434E-1,-5.0173816E-3,6.9687986E-3],"split_indices":[118,2,0,0,0],"split_type":[0,0,0,0,0],"sum_hessian":[1.4754707E2,1.4377611E2,3.7709768E0,1.4021786E2,3.5582404E0],"tree_param":{"num_deleted":"0","num_feature":"131","num_nodes":"5","size_leaf_vector":"1"}},{"base_weights":[-2.0572513E-2,-4.413882E-1,1.3482365E-1,-5.0119697E-3,7.564067E-4],"categories":[],"categories_nodes":[],"categories_segments":[],"categories_sizes":[],"default_left":[0,0,0,0,0],"id":58,"left_children":[1,3,-1,-1,-1],"loss_changes":[8.535987E2,5.0379524E0,0E0,0E0,0E0],"parents":[2147483647,0,0,1,1],"right_children":[2,4,-1,-1,-1],"split_conditions":[1E0,1E0,1.3482365E-1,-5.0119697E-3,7.564067E-4],"split_indices":[108,31,0,0,0],"split_type":[0,0,0,0,0],"sum_hessian":[1.5046977E2,1.4693204E2,3.5377307E0,1.3345857E2,1.347346E1],"tree_param":{"num_deleted":"0","num_feature":"131","num_nodes":"5","size_leaf_vector":"1"}},{"base_weights":[-4.525997E-3,-4.5141914E-1,4.339544E0,-5.0067E-3,2.8820097E-4,1.2315149E-1,-3.5778722E-3],"categories":[],"categories_nodes":[],"categories_segments":[],"categories_sizes":[],"default_left":[0,0,0,0,0,0,0],"id":59,"left_children":[1,3,5,-1,-1,-1,-1],"loss_changes":[2.9429727E2,3.7850552E0,5.453092E2,0E0,0E0,0E0,0E0],"parents":[2147483647,0,0,1,1,2,2],"right_children":[2,4,6,-1,-1,-1,-1],"split_conditions":[1E0,1E0,1E0,-5.0067E-3,2.8820097E-4,1.2315149E-1,-3.5778722E-3],"split_indices":[14,18,41,0,0,0,0],"split_type":[0,0,0,0,0,0,0],"sum_hessian":[1.5158904E2,1.3847028E2,1.311875E1,1.2744039E2,1.1029886E1,4.340375E0,8.778375E0],"tree_param":{"num_deleted":"0","num_feature":"131","num_nodes":"7","size_leaf_vector":"1"}},{"base_weights":[-1.5138455E-2,-5.0207013E-3,1.3889986E-1],"categories":[],"categories_nodes":[],"categories_segments":[],"categories_sizes":[],"default_left":[0,0,0],"id":60,"left_children":[1,-1,-1],"loss_changes":[1.00795496E3,0E0,0E0],"parents":[2147483647,0,0],"right_children":[2,-1,-1],"split_conditions":[1E0,-5.0207013E-3,1.3889986E-1],"split_indices":[87,0,0],"split_type":[0,0,0],"sum_hessian":[1.4881427E2,1.4478015E2,4.034123E0],"tree_param":{"num_deleted":"0","num_feature":"131","num_nodes":"3","size_leaf_vector":"1"}},{"base_weights":[-1.6816753E-3,-4.6685386E-1,8.231131E0,-5.0000087E-3,-2.2080513E-3,-0E0,1.3740276E-1],"categories":[],"categories_nodes":[],"categories_segments":[],"categories_sizes":[],"default_left":[0,0,0,0,0,0,0],"id":61,"left_children":[1,3,5,-1,-1,-1,-1],"loss_changes":[5.696976E2,3.337078E-1,3.6885718E2,0E0,0E0,0E0,0E0],"parents":[2147483647,0,0,1,1,2,2],"right_children":[2,4,6,-1,-1,-1,-1],"split_conditions":[1E0,1E0,1E0,-5.0000087E-3,-2.2080513E-3,-0E0,1.3740276E-1],"split_indices":[39,129,71,0,0,0,0],"split_type":[0,0,0,0,0,0,0],"sum_hessian":[1.487827E2,1.4183354E2,6.949152E0,1.20503296E2,2.133025E1,3.142757E0,3.806395E0],"tree_param":{"num_deleted":"0","num_feature":"131","num_nodes":"7","size_leaf_vector":"1"}},{"base_weights":[1.370861E-2,-4.5634627E-1,3.525994E0,-5.002254E-3,-0E0,5.7308406E-2,-3.0887474E-3],"categories":[],"categories_nodes":[],"categories_segments":[],"categories_sizes":[],"default_left":[0,0,0,0,0,0,0],"id":62,"left_children":[1,3,5,-1,-1,-1,-1],"loss_changes":[2.5414165E2,3.0700417E0,1.6108606E2,0E0,0E0,0E0,0E0],"parents":[2147483647,0,0,1,1,2,2],"right_children":[2,4,6,-1,-1,-1,-1],"split_conditions":[1E0,1E0,1E0,-5.002254E-3,-0E0,5.7308406E-2,-3.0887474E-3],"split_indices":[28,56,55,0,0,0,0],"split_type":[0,0,0,0,0,0,0],"sum_hessian":[1.501011E2,1.329002E2,1.7200895E1,1.2270851E2,1.0191702E1,1.0773224E1,6.427672E0],"tree_param":{"num_deleted":"0","num_feature":"131","num_nodes":"7","size_leaf_vector":"1"}},{"base_weights":[-1.4723145E-2,-5.0206077E-3,1.385721E-1],"categories":[],"categories_nodes":[],"categories_segments":[],"categories_sizes":[],"default_left":[0,0,0],"id":63,"left_children":[1,-1,-1],"loss_changes":[1.005545E3,0E0,0E0],"parents":[2147483647,0,0],"right_children":[2,-1,-1],"split_conditions":[1E0,-5.0206077E-3,1.385721E-1],"split_indices":[21,0,0],"split_type":[0,0,0],"sum_hessian":[1.4868872E2,1.4464313E2,4.045591E0],"tree_param":{"num_deleted":"0","num_feature":"131","num_nodes":"3","size_leaf_vector":"1"}},{"base_weights":[-5.8489284E-3,-4.7447056E-1,1.3702038E-1,-5.014703E-3,-0E0],"categories":[],"categories_nodes":[],"categories_segments":[],"categories_sizes":[],"default_left":[0,0,0,0,0],"id":64,"left_children":[1,3,-1,-1,-1],"loss_changes":[9.5067957E2,1.9738312E0,0E0,0E0,0E0],"parents":[2147483647,0,0,1,1],"right_children":[2,4,-1,-1,-1],"split_conditions":[1E0,1E0,1.3702038E-1,-5.014703E-3,-0E0],"split_indices":[58,34,0,0,0],"split_type":[0,0,0,0,0],"sum_hessian":[1.4804015E2,1.4415051E2,3.8896317E0,1.3679022E2,7.360288E0],"tree_param":{"num_deleted":"0","num_feature":"131","num_nodes":"5","size_leaf_vector":"1"}},{"base_weights":[3.7397517E-4,-5.018712E-3,8.008586E0,-1.9442021E-3,1.400075E-1],"categories":[],"categories_nodes":[],"categories_segments":[],"categories_sizes":[],"default_left":[0,0,0,0,0],"id":65,"left_children":[1,-1,3,-1,-1],"loss_changes":[6.1938354E2,0E0,4.6360223E2,0E0,0E0],"parents":[2147483647,0,0,2,2],"right_children":[2,-1,4,-1,-1],"split_conditions":[1E0,-5.018712E-3,1E0,-1.9442021E-3,1.400075E-1],"split_indices":[70,0,1,0,0],"split_type":[0,0,0,0,0],"sum_hessian":[1.5012991E2,1.420345E2,8.095416E0,3.7552772E0,4.3401384E0],"tree_param":{"num_deleted":"0","num_feature":"131","num_nodes":"5","size_leaf_vector":"1"}},{"base_weights":[-2.031832E-2,-5.021803E-3,1.3856119E-1],"categories":[],"categories_nodes":[],"categories_segments":[],"categories_sizes":[],"default_left":[0,0,0],"id":66,"left_children":[1,-1,-1],"loss_changes":[1.0058823E3,0E0,0E0],"parents":[2147483647,0,0],"right_children":[2,-1,-1],"split_conditions":[1E0,-5.021803E-3,1.3856119E-1],"split_indices":[79,0,0],"split_type":[0,0,0],"sum_hessian":[1.5039069E2,1.4634471E2,4.045974E0],"tree_param":{"num_deleted":"0","num_feature":"131","num_nodes":"3","size_leaf_vector":"1"}},{"base_weights":[2.0361915E-2,-5.0212694E-3,1.410829E-1],"categories":[],"categories_nodes":[],"categories_segments":[],"categories_sizes":[],"default_left":[0,0,0],"id":67,"left_children":[1,-1,-1],"loss_changes":[1.1328362E3,0E0,0E0],"parents":[2147483647,0,0],"right_children":[2,-1,-1],"split_conditions":[1E0,-5.0212694E-3,1.410829E-1],"split_indices":[15,0,0],"split_type":[0,0,0],"sum_hessian":[1.5009062E2,1.4558461E2,4.506023E0],"tree_param":{"num_deleted":"0","num_feature":"131","num_nodes":"3","size_leaf_vector":"1"}},{"base_weights":[-0E0,-4.7460785E-3,1.3909282E-1],"categories":[],"categories_nodes":[],"categories_segments":[],"categories_sizes":[],"default_left":[0,0,0],"id":68,"left_children":[1,-1,-1],"loss_changes":[9.920403E2,0E0,0E0],"parents":[2147483647,0,0],"right_children":[2,-1,-1],"split_conditions":[1E0,-4.7460785E-3,1.3909282E-1],"split_indices":[89,0,0],"split_type":[0,0,0],"sum_hessian":[1.4862022E2,1.4466214E2,3.9580753E0],"tree_param":{"num_deleted":"0","num_feature":"131","num_nodes":"3","size_leaf_vector":"1"}},{"base_weights":[1.8521065E-2,-4.7948826E-3,4.421399E0,-3.8672006E-4,1.3970628E-1],"categories":[],"categories_nodes":[],"categories_segments":[],"categories_sizes":[],"default_left":[0,0,0,0,0],"id":69,"left_children":[1,-1,3,-1,-1],"loss_changes":[3.385037E2,0E0,6.8349634E2,0E0,0E0],"parents":[2147483647,0,0,2,2],"right_children":[2,-1,4,-1,-1],"split_conditions":[1E0,-4.7948826E-3,1E0,-3.8672006E-4,1.3970628E-1],"split_indices":[126,0,0,0,0],"split_type":[0,0,0,0,0],"sum_hessian":[1.5061475E2,1.3590636E2,1.4708388E1,1.0633245E1,4.075143E0],"tree_param":{"num_deleted":"0","num_feature":"131","num_nodes":"5","size_leaf_vector":"1"}},{"base_weights":[-0E0,-5.0130016E-3,4.5127897E0,-1.0148595E-3,1.3857841E-1],"categories":[],"categories_nodes":[],"categories_segments":[],"categories_sizes":[],"default_left":[0,0,0,0,0],"id":70,"left_children":[1,-1,3,-1,-1],"loss_changes":[3.4008444E2,0E0,6.630409E2,0E0,0E0],"parents":[2147483647,0,0,2,2],"right_children":[2,-1,4,-1,-1],"split_conditions":[1E0,-5.0130016E-3,1E0,-1.0148595E-3,1.3857841E-1],"split_indices":[68,0,109,0,0],"split_type":[0,0,0,0,0],"sum_hessian":[1.48721E2,1.3469621E2,1.402478E1,9.97941E0,4.0453696E0],"tree_param":{"num_deleted":"0","num_feature":"131","num_nodes":"5","size_leaf_vector":"1"}},{"base_weights":[3.0374175E-2,-4.683468E-1,1.4055927E-1,-5.019611E-3,5.119312E-3],"categories":[],"categories_nodes":[],"categories_segments":[],"categories_sizes":[],"default_left":[0,0,0,0,0],"id":71,"left_children":[1,3,-1,-1,-1],"loss_changes":[1.0833058E3,5.1128845E0,0E0,0E0,0E0],"parents":[2147483647,0,0,1,1],"right_children":[2,4,-1,-1,-1],"split_conditions":[1E0,1E0,1.4055927E-1,-5.019611E-3,5.119312E-3],"split_indices":[120,2,0,0,0],"split_type":[0,0,0,0,0],"sum_hessian":[1.5098857E2,1.4666862E2,4.3199377E0,1.4326407E2,3.404552E0],"tree_param":{"num_deleted":"0","num_feature":"131","num_nodes":"5","size_leaf_vector":"1"}},{"base_weights":[9.044942E-3,-4.6741825E-1,1.3974963E-1,-5.017224E-3,4.6968046E-3],"categories":[],"categories_nodes":[],"categories_segments":[],"categories_sizes":[],"default_left":[0,0,0,0,0],"id":72,"left_children":[1,3,-1,-1,-1],"loss_changes":[1.0089844E3,4.916502E0,0E0,0E0,0E0],"parents":[2147483647,0,0,1,1],"right_children":[2,4,-1,-1,-1],"split_conditions":[1E0,1E0,1.3974963E-1,-5.017224E-3,4.6968046E-3],"split_indices":[57,78,0,0,0],"split_type":[0,0,0,0,0],"sum_hessian":[1.4761859E2,1.4361397E2,4.004625E0,1.4002002E2,3.5939486E0],"tree_param":{"num_deleted":"0","num_feature":"131","num_nodes":"5","size_leaf_vector":"1"}},{"base_weights":[1.7828107E-2,-4.6777246E-3,1.3934973E-1],"categories":[],"categories_nodes":[],"categories_segments":[],"categories_sizes":[],"default_left":[0,0,0],"id":73,"left_children":[1,-1,-1],"loss_changes":[1.0332234E3,0E0,0E0],"parents":[2147483647,0,0],"right_children":[2,-1,-1],"split_conditions":[1E0,-4.6777246E-3,1.3934973E-1],"split_indices":[4,0,0],"split_type":[0,0,0],"sum_hessian":[1.4892775E2,1.447709E2,4.156849E0],"tree_param":{"num_deleted":"0","num_feature":"131","num_nodes":"3","size_leaf_vector":"1"}},{"base_weights":[7.3700445E-3,-4.749178E-1,1.3961333E-1,-5.0187046E-3,2.1271273E-3],"categories":[],"categories_nodes":[],"categories_segments":[],"categories_sizes":[],"default_left":[0,0,0,0,0],"id":74,"left_children":[1,3,-1,-1,-1],"loss_changes":[1.036456E3,3.1179733E0,0E0,0E0,0E0],"parents":[2147483647,0,0,1,1],"right_children":[2,4,-1,-1,-1],"split_conditions":[1E0,1E0,1.3961333E-1,-5.0187046E-3,2.1271273E-3],"split_indices":[80,49,0,0,0],"split_type":[0,0,0,0,0],"sum_hessian":[1.500201E2,1.4587263E2,4.1474633E0,1.4202997E2,3.842658E0],"tree_param":{"num_deleted":"0","num_feature":"131","num_nodes":"5","size_leaf_vector":"1"}},{"base_weights":[-2.5238259E-2,-5.021473E-3,1.3800679E-1],"categories":[],"categories_nodes":[],"categories_segments":[],"categories_sizes":[],"default_left":[0,0,0],"id":75,"left_children":[1,-1,-1],"loss_changes":[9.88404E2,0E0,0E0],"parents":[2147483647,0,0],"right_children":[2,-1,-1],"split_conditions":[1E0,-5.021473E-3,1.3800679E-1],"split_indices":[94,0,0],"split_type":[0,0,0],"sum_hessian":[1.49867E2,1.4587135E2,3.9956546E0],"tree_param":{"num_deleted":"0","num_feature":"131","num_nodes":"3","size_leaf_vector":"1"}},{"base_weights":[2.2056713E-3,-4.820315E-3,1.4034314E-1],"categories":[],"categories_nodes":[],"categories_segments":[],"categories_sizes":[],"default_left":[0,0,0],"id":76,"left_children":[1,-1,-1],"loss_changes":[1.0567776E3,0E0,0E0],"parents":[2147483647,0,0],"right_children":[2,-1,-1],"split_conditions":[1E0,-4.820315E-3,1.4034314E-1],"split_indices":[97,0,0],"split_type":[0,0,0],"sum_hessian":[1.5153572E2,1.4734534E2,4.19039E0],"tree_param":{"num_deleted":"0","num_feature":"131","num_nodes":"3","size_leaf_vector":"1"}},{"base_weights":[2.1703282E-2,-5.0210077E-3,1.4118281E-1],"categories":[],"categories_nodes":[],"categories_segments":[],"categories_sizes":[],"default_left":[0,0,0],"id":77,"left_children":[1,-1,-1],"loss_changes":[1.1335333E3,0E0,0E0],"parents":[2147483647,0,0],"right_children":[2,-1,-1],"split_conditions":[1E0,-5.0210077E-3,1.4118281E-1],"split_indices":[11,0,0],"split_type":[0,0,0],"sum_hessian":[1.4971124E2,1.4520898E2,4.502268E0],"tree_param":{"num_deleted":"0","num_feature":"131","num_nodes":"3","size_leaf_vector":"1"}},{"base_weights":[-6.4895726E-3,-4.8138872E-1,1.3754766E-1,-5.01779E-3,4.742077E-4],"categories":[],"categories_nodes":[],"categories_segments":[],"categories_sizes":[],"default_left":[0,0,0,0,0],"id":78,"left_children":[1,3,-1,-1,-1],"loss_changes":[9.685899E2,2.0447235E0,0E0,0E0,0E0],"parents":[2147483647,0,0,1,1],"right_children":[2,4,-1,-1,-1],"split_conditions":[1E0,1E0,1.3754766E-1,-5.01779E-3,4.742077E-4],"split_indices":[7,23,0,0,0],"split_type":[0,0,0,0,0],"sum_hessian":[1.4822888E2,1.4428723E2,3.9416475E0,1.408003E2,3.48694E0],"tree_param":{"num_deleted":"0","num_feature":"131","num_nodes":"5","size_leaf_vector":"1"}},{"base_weights":[-2.108613E-3,-4.8111194E-1,1.375121E-1,-5.0169644E-3,7.257364E-4],"categories":[],"categories_nodes":[],"categories_segments":[],"categories_sizes":[],"default_left":[0,0,0,0,0],"id":79,"left_children":[1,3,-1,-1,-1],"loss_changes":[9.6800934E2,2.1068115E0,0E0,0E0,0E0],"parents":[2147483647,0,0,1,1],"right_children":[2,4,-1,-1,-1],"split_conditions":[1E0,1E0,1.375121E-1,-5.0169644E-3,7.257364E-4],"split_indices":[24,17,0,0,0],"split_type":[0,0,0,0,0],"sum_hessian":[1.4694786E2,1.4300497E2,3.9428773E0,1.3971088E2,3.2940981E0],"tree_param":{"num_deleted":"0","num_feature":"131","num_nodes":"5","size_leaf_vector":"1"}},{"base_weights":[-3.0965338E-2,-4.8883888E-1,1.3736771E-1,-5.020263E-3,-0E0],"categories":[],"categories_nodes":[],"categories_segments":[],"categories_sizes":[],"default_left":[0,0,0,0,0],"id":80,"left_children":[1,3,-1,-1,-1],"loss_changes":[9.5582935E2,1.032135E0,0E0,0E0,0E0],"parents":[2147483647,0,0,1,1],"right_children":[2,4,-1,-1,-1],"split_conditions":[1E0,1E0,1.3736771E-1,-5.020263E-3,-0E0],"split_indices":[84,74,0,0,0],"split_type":[0,0,0,0,0],"sum_hessian":[1.5166183E2,1.477841E2,3.8777285E0,1.4416542E2,3.6186883E0],"tree_param":{"num_deleted":"0","num_feature":"131","num_nodes":"5","size_leaf_vector":"1"}},{"base_weights":[-5.646547E-2,-5.0180517E-3,5.4673996E0,1.3725743E-1,-3.120696E-3],"categories":[],"categories_nodes":[],"categories_segments":[],"categories_sizes":[],"default_left":[0,0,0,0,0],"id":81,"left_children":[1,-1,3,-1,-1],"loss_changes":[3.7275156E2,0E0,5.564912E2,0E0,0E0],"parents":[2147483647,0,0,2,2],"right_children":[2,-1,4,-1,-1],"split_conditions":[1E0,-5.0180517E-3,1E0,1.3725743E-1,-3.120696E-3],"split_indices":[64,0,63,0,0],"split_type":[0,0,0,0,0],"sum_hessian":[1.5142848E2,1.4113983E2,1.028865E1,3.741086E0,6.547564E0],"tree_param":{"num_deleted":"0","num_feature":"131","num_nodes":"5","size_leaf_vector":"1"}},{"base_weights":[2.0363158E-2,-4.8151407E-1,1.2492753E-1,-5.0151357E-3,-0E0],"categories":[],"categories_nodes":[],"categories_segments":[],"categories_sizes":[],"default_left":[0,0,0,0,0],"id":82,"left_children":[1,3,-1,-1,-1],"loss_changes":[9.637344E2,1.0988388E0,0E0,0E0,0E0],"parents":[2147483647,0,0,1,1],"right_children":[2,4,-1,-1,-1],"split_conditions":[1E0,1E0,1.2492753E-1,-5.0151357E-3,-0E0],"split_indices":[119,61,0,0,0],"split_type":[0,0,0,0,0],"sum_hessian":[1.5008096E2,1.4512257E2,4.9583793E0,1.3806955E2,7.0530257E0],"tree_param":{"num_deleted":"0","num_feature":"131","num_nodes":"5","size_leaf_vector":"1"}},{"base_weights":[-0E0,-4.612494E-3,1.2639134E-1],"categories":[],"categories_nodes":[],"categories_segments":[],"categories_sizes":[],"default_left":[0,0,0],"id":83,"left_children":[1,-1,-1],"loss_changes":[8.9965894E2,0E0,0E0],"parents":[2147483647,0,0],"right_children":[2,-1,-1],"split_conditions":[1E0,-4.612494E-3,1.2639134E-1],"split_indices":[69,0,0],"split_type":[0,0,0],"sum_hessian":[1.5027267E2,1.4583647E2,4.436193E0],"tree_param":{"num_deleted":"0","num_feature":"131","num_nodes":"3","size_leaf_vector":"1"}},{"base_weights":[3.582861E-2,-4.540056E-1,1.2692203E-1,-5.002407E-3,-1.3009316E-3],"categories":[],"categories_nodes":[],"categories_segments":[],"categories_sizes":[],"default_left":[0,0,0,0,0],"id":84,"left_children":[1,3,-1,-1,-1],"loss_changes":[9.508354E2,1.487381E0,0E0,0E0,0E0],"parents":[2147483647,0,0,1,1],"right_children":[2,4,-1,-1,-1],"split_conditions":[1E0,1E0,1.2692203E-1,-5.002407E-3,-1.3009316E-3],"split_indices":[8,100,0,0,0],"split_type":[0,0,0,0,0],"sum_hessian":[1.4946875E2,1.4475162E2,4.7171426E0,1.23492714E2,2.1258902E1],"tree_param":{"num_deleted":"0","num_feature":"131","num_nodes":"5","size_leaf_vector":"1"}},{"base_weights":[-2.7102124E-2,-4.8130453E-3,1.23118415E-1],"categories":[],"categories_nodes":[],"categories_segments":[],"categories_sizes":[],"default_left":[0,0,0],"id":85,"left_children":[1,-1,-1],"loss_changes":[8.312768E2,0E0,0E0],"parents":[2147483647,0,0],"right_children":[2,-1,-1],"split_conditions":[1E0,-4.8130453E-3,1.23118415E-1],"split_indices":[42,0,0],"split_type":[0,0,0],"sum_hessian":[1.4837993E2,1.4411696E2,4.262977E0],"tree_param":{"num_deleted":"0","num_feature":"131","num_nodes":"3","size_leaf_vector":"1"}},{"base_weights":[-4.4216182E-2,-4.67947E-1,1.20432205E-1,-5.017831E-3,4.0699616E-3],"categories":[],"categories_nodes":[],"categories_segments":[],"categories_sizes":[],"default_left":[0,0,0,0,0],"id":86,"left_children":[1,3,-1,-1,-1],"loss_changes":[7.6525366E2,4.6364822E0,0E0,0E0,0E0],"parents":[2147483647,0,0,1,1],"right_children":[2,4,-1,-1,-1],"split_conditions":[1E0,1E0,1.20432205E-1,-5.017831E-3,4.0699616E-3],"split_indices":[96,25,0,0,0],"split_type":[0,0,0,0,0],"sum_hessian":[1.495702E2,1.4551318E2,4.057017E0,1.4160637E2,3.9068255E0],"tree_param":{"num_deleted":"0","num_feature":"131","num_nodes":"5","size_leaf_vector":"1"}},{"base_weights":[4.376933E-2,-4.8815253E-1,1.2610525E-1,-5.0172387E-3,-0E0],"categories":[],"categories_nodes":[],"categories_segments":[],"categories_sizes":[],"default_left":[0,0,0,0,0],"id":87,"left_children":[1,3,-1,-1,-1],"loss_changes":[1.0217314E3,1.1669273E0,0E0,0E0,0E0],"parents":[2147483647,0,0,1,1],"right_children":[2,4,-1,-1,-1],"split_conditions":[1E0,1E0,1.2610525E-1,-5.0172387E-3,-0E0],"split_indices":[66,105,0,0,0],"split_type":[0,0,0,0,0],"sum_hessian":[1.4911569E2,1.4390605E2,5.2096324E0,1.4080853E2,3.0975192E0],"tree_param":{"num_deleted":"0","num_feature":"131","num_nodes":"5","size_leaf_vector":"1"}},{"base_weights":[-9.0510115E-2,-4.9552843E-1,1.20434195E-1,-5.0199E-3,-0E0],"categories":[],"categories_nodes":[],"categories_segments":[],"categories_sizes":[],"default_left":[0,0,0,0,0],"id":88,"left_children":[1,3,-1,-1,-1],"loss_changes":[7.457181E2,6.901932E-2,0E0,0E0,0E0],"parents":[2147483647,0,0,1,1],"right_children":[2,4,-1,-1,-1],"split_conditions":[1E0,1E0,1.20434195E-1,-5.0199E-3,-0E0],"split_indices":[67,39,0,0,0],"split_type":[0,0,0,0,0],"sum_hessian":[1.5187488E2,1.4797713E2,3.897752E0,1.4444046E2,3.5366774E0],"tree_param":{"num_deleted":"0","num_feature":"131","num_nodes":"5","size_leaf_vector":"1"}},{"base_weights":[1.1461299E-2,-4.5453957E-1,1.2382681E-1,-5.018627E-3,9.313206E-3],"categories":[],"categories_nodes":[],"categories_segments":[],"categories_sizes":[],"default_left":[0,0,0,0,0],"id":89,"left_children":[1,3,-1,-1,-1],"loss_changes":[8.9234674E2,9.686535E0,0E0,0E0,0E0],"parents":[2147483647,0,0,1,1],"right_children":[2,4,-1,-1,-1],"split_conditions":[1E0,1E0,1.2382681E-1,-5.018627E-3,9.313206E-3],"split_indices":[123,72,0,0,0],"split_type":[0,0,0,0,0],"sum_hessian":[1.507416E2,1.4611995E2,4.6216416E0,1.426097E2,3.5102677E0],"tree_param":{"num_deleted":"0","num_feature":"131","num_nodes":"5","size_leaf_vector":"1"}},{"base_weights":[-1.3320105E-2,-5.0168247E-3,7.5340753E0,1.2338803E-1,-1.662172E-3],"categories":[],"categories_nodes":[],"categories_segments":[],"categories_sizes":[],"default_left":[0,0,0,0,0],"id":90,"left_children":[1,-1,3,-1,-1],"loss_changes":[5.4689703E2,0E0,3.4753766E2,0E0,0E0],"parents":[2147483647,0,0,2,2],"right_children":[2,-1,4,-1,-1],"split_conditions":[1E0,-5.0168247E-3,1E0,1.2338803E-1,-1.662172E-3],"split_indices":[90,0,6,0,0],"split_type":[0,0,0,0,0],"sum_hessian":[1.4825937E2,1.4025035E2,8.009025E0,4.6408014E0,3.368223E0],"tree_param":{"num_deleted":"0","num_feature":"131","num_nodes":"5","size_leaf_vector":"1"}},{"base_weights":[8.645696E-2,-4.6880585E-1,3.053429E0,-4.986397E-3,-1.9744341E-3,-1.6648591E-3,1.2571757E-1],"categories":[],"categories_nodes":[],"categories_segments":[],"categories_sizes":[],"default_left":[0,0,0,0,0,0,0],"id":91,"left_children":[1,3,5,-1,-1,-1,-1],"loss_changes":[2.5019554E2,2.2922897E-1,7.492588E2,0E0,0E0,0E0,0E0],"parents":[2147483647,0,0,1,1,2,2],"right_children":[2,4,6,-1,-1,-1,-1],"split_conditions":[1E0,1E0,1E0,-4.986397E-3,-1.9744341E-3,-1.6648591E-3,1.2571757E-1],"split_indices":[55,129,71,0,0,0,0],"split_type":[0,0,0,0,0,0,0],"sum_hessian":[1.484307E2,1.2545667E2,2.2974016E1,1.0895536E2,1.6501314E1,1.78224E1,5.151616E0],"tree_param":{"num_deleted":"0","num_feature":"131","num_nodes":"7","size_leaf_vector":"1"}},{"base_weights":[3.8304225E-2,-5.0204834E-3,1.2628183E-1],"categories":[],"categories_nodes":[],"categories_segments":[],"categories_sizes":[],"default_left":[0,0,0],"id":92,"left_children":[1,-1,-1],"loss_changes":[1.0498259E3,0E0,0E0],"parents":[2147483647,0,0],"right_children":[2,-1,-1],"split_conditions":[1E0,-5.0204834E-3,1.2628183E-1],"split_indices":[22,0,0],"split_type":[0,0,0],"sum_hessian":[1.5060426E2,1.4525084E2,5.3534145E0],"tree_param":{"num_deleted":"0","num_feature":"131","num_nodes":"3","size_leaf_vector":"1"}},{"base_weights":[5.7551067E-4,-5.0203754E-3,1.2492848E-1],"categories":[],"categories_nodes":[],"categories_segments":[],"categories_sizes":[],"default_left":[0,0,0],"id":93,"left_children":[1,-1,-1],"loss_changes":[9.6674915E2,0E0,0E0],"parents":[2147483647,0,0],"right_children":[2,-1,-1],"split_conditions":[1E0,-5.0203754E-3,1.2492848E-1],"split_indices":[75,0,0],"split_type":[0,0,0],"sum_hessian":[1.5006226E2,1.4510393E2,4.9583364E0],"tree_param":{"num_deleted":"0","num_feature":"131","num_nodes":"3","size_leaf_vector":"1"}},{"base_weights":[5.352935E-3,-5.0207064E-3,1.2515885E-1],"categories":[],"categories_nodes":[],"categories_segments":[],"categories_sizes":[],"default_left":[0,0,0],"id":94,"left_children":[1,-1,-1],"loss_changes":[9.8067017E2,0E0,0E0],"parents":[2147483647,0,0],"right_children":[2,-1,-1],"split_conditions":[1E0,-5.0207064E-3,1.2515885E-1],"split_indices":[48,0,0],"split_type":[0,0,0],"sum_hessian":[1.5059915E2,1.4557463E2,5.02453E0],"tree_param":{"num_deleted":"0","num_feature":"131","num_nodes":"3","size_leaf_vector":"1"}},{"base_weights":[-1.4350025E-2,-4.8131156E-1,1.23583704E-1,-5.0167725E-3,-0E0],"categories":[],"categories_nodes":[],"categories_segments":[],"categories_sizes":[],"default_left":[0,0,0,0,0],"id":95,"left_children":[1,3,-1,-1,-1],"loss_changes":[8.582296E2,1.9050217E0,0E0,0E0,0E0],"parents":[2147483647,0,0,1,1],"right_children":[2,4,-1,-1,-1],"split_conditions":[1E0,1E0,1.23583704E-1,-5.0167725E-3,-0E0],"split_indices":[76,23,0,0,0],"split_type":[0,0,0,0,0],"sum_hessian":[1.485709E2,1.4417162E2,4.3992906E0,1.4019353E2,3.9780838E0],"tree_param":{"num_deleted":"0","num_feature":"131","num_nodes":"5","size_leaf_vector":"1"}},{"base_weights":[1.0473176E-2,-4.3440542E-1,1.2293822E-1,-5.018794E-3,1.485196E-2],"categories":[],"categories_nodes":[],"categories_segments":[],"categories_sizes":[],"default_left":[0,0,0,0,0],"id":96,"left_children":[1,3,-1,-1,-1],"loss_changes":[8.4798254E2,1.8880136E1,0E0,0E0,0E0],"parents":[2147483647,0,0,1,1],"right_children":[2,4,-1,-1,-1],"split_conditions":[1E0,1E0,1.2293822E-1,-5.018794E-3,1.485196E-2],"split_indices":[104,17,0,0,0],"split_type":[0,0,0,0,0],"sum_hessian":[1.5102992E2,1.4660347E2,4.4264636E0,1.4284206E2,3.7614048E0],"tree_param":{"num_deleted":"0","num_feature":"131","num_nodes":"5","size_leaf_vector":"1"}},{"base_weights":[1.0994376E-2,-4.4707587E-1,1.2587772E-1,-5.005107E-3,-1.8761802E-4],"categories":[],"categories_nodes":[],"categories_segments":[],"categories_sizes":[],"default_left":[0,0,0,0,0],"id":97,"left_children":[1,3,-1,-1,-1],"loss_changes":[8.817375E2,2.8033485E0,0E0,0E0,0E0],"parents":[2147483647,0,0,1,1],"right_children":[2,4,-1,-1,-1],"split_conditions":[1E0,1E0,1.2587772E-1,-5.005107E-3,-1.8761802E-4],"split_indices":[73,55,0,0,0],"split_type":[0,0,0,0,0],"sum_hessian":[1.4896733E2,1.4458617E2,4.381163E0,1.2632328E2,1.8262894E1],"tree_param":{"num_deleted":"0","num_feature":"131","num_nodes":"5","size_leaf_vector":"1"}},{"base_weights":[-0E0,-4.5344168E-1,1.2250776E-1,-5.0165458E-3,9.226459E-3],"categories":[],"categories_nodes":[],"categories_segments":[],"categories_sizes":[],"default_left":[0,0,0,0,0],"id":98,"left_children":[1,3,-1,-1,-1],"loss_changes":[8.350899E2,9.621378E0,0E0,0E0,0E0],"parents":[2147483647,0,0,1,1],"right_children":[2,4,-1,-1,-1],"split_conditions":[1E0,1E0,1.2250776E-1,-5.0165458E-3,9.226459E-3],"split_indices":[118,2,0,0,0],"split_type":[0,0,0,0,0],"sum_hessian":[1.4775563E2,1.433892E2,4.3664317E0,1.3985149E2,3.5377178E0],"tree_param":{"num_deleted":"0","num_feature":"131","num_nodes":"5","size_leaf_vector":"1"}},{"base_weights":[-0E0,-4.4147298E-1,1.262291E-1,-5.0109774E-3,4.5873533E-4],"categories":[],"categories_nodes":[],"categories_segments":[],"categories_sizes":[],"default_left":[0,0,0,0,0],"id":99,"left_children":[1,3,-1,-1,-1],"loss_changes":[8.597642E2,4.783907E0,0E0,0E0,0E0],"parents":[2147483647,0,0,1,1],"right_children":[2,4,-1,-1,-1],"split_conditions":[1E0,1E0,1.262291E-1,-5.0109774E-3,4.5873533E-4],"split_indices":[29,31,0,0,0],"split_type":[0,0,0,0,0],"sum_hessian":[1.513909E2,1.4717628E2,4.2146096E0,1.3293587E2,1.4240419E1],"tree_param":{"num_deleted":"0","num_feature":"131","num_nodes":"5","size_leaf_vector":"1"}},{"base_weights":[-0E0,-4.4315547E-1,4.102488E0,-5.0046765E-3,1.4001164E-3,1.1401006E-1,-3.645122E-3],"categories":[],"categories_nodes":[],"categories_segments":[],"categories_sizes":[],"default_left":[0,0,0,0,0,0,0],"id":100,"left_children":[1,3,5,-1,-1,-1,-1],"loss_changes":[2.8041833E2,5.021776E0,5.0613678E2,0E0,0E0,0E0,0E0],"parents":[2147483647,0,0,1,1,2,2],"right_children":[2,4,6,-1,-1,-1,-1],"split_conditions":[1E0,1E0,1E0,-5.0046765E-3,1.4001164E-3,1.1401006E-1,-3.645122E-3],"split_indices":[14,18,41,0,0,0,0],"split_type":[0,0,0,0,0,0,0],"sum_hessian":[1.5042812E2,1.3636961E2,1.4058501E1,1.2585726E2,1.0512346E1,4.833219E0,9.225283E0],"tree_param":{"num_deleted":"0","num_feature":"131","num_nodes":"7","size_leaf_vector":"1"}},{"base_weights":[-5.4793082E-2,-5.019906E-3,1.2185098E-1],"categories":[],"categories_nodes":[],"categories_segments":[],"categories_sizes":[],"default_left":[0,0,0],"id":101,"left_children":[1,-1,-1],"loss_changes":[8.137336E2,0E0,0E0],"parents":[2147483647,0,0],"right_children":[2,-1,-1],"split_conditions":[1E0,-5.019906E-3,1.2185098E-1],"split_indices":[87,0,0],"split_type":[0,0,0],"sum_hessian":[1.4868074E2,1.44444E2,4.2367287E0],"tree_param":{"num_deleted":"0","num_feature":"131","num_nodes":"3","size_leaf_vector":"1"}},{"base_weights":[-1.37742E-2,-4.601377E-1,7.2869005E0,-5.000426E-3,-1.7546053E-3,-0E0,1.2216096E-1],"categories":[],"categories_nodes":[],"categories_segments":[],"categories_sizes":[],"default_left":[0,0,0,0,0,0,0],"id":102,"left_children":[1,3,5,-1,-1,-1,-1],"loss_changes":[4.8991205E2,8.697548E-1,3.2008783E2,0E0,0E0,0E0,0E0],"parents":[2147483647,0,0,1,1,2,2],"right_children":[2,4,6,-1,-1,-1,-1],"split_conditions":[1E0,1E0,1E0,-5.000426E-3,-1.7546053E-3,-0E0,1.2216096E-1],"split_indices":[39,129,71,0,0,0,0],"split_type":[0,0,0,0,0,0,0],"sum_hessian":[1.5040318E2,1.4274942E2,7.653757E0,1.21455055E2,2.1294373E1,3.4297593E0,4.223998E0],"tree_param":{"num_deleted":"0","num_feature":"131","num_nodes":"7","size_leaf_vector":"1"}},{"base_weights":[-7.9626046E-2,-4.5586294E-1,2.442057E0,-4.9995733E-3,-0E0,4.1950446E-2,-3.2976249E-3],"categories":[],"categories_nodes":[],"categories_segments":[],"categories_sizes":[],"default_left":[0,0,0,0,0,0,0],"id":103,"left_children":[1,3,5,-1,-1,-1,-1],"loss_changes":[1.4270392E2,2.778881E0,9.980288E1,0E0,0E0,0E0,0E0],"parents":[2147483647,0,0,1,1,2,2],"right_children":[2,4,6,-1,-1,-1,-1],"split_conditions":[1E0,1E0,1E0,-4.9995733E-3,-0E0,4.1950446E-2,-3.2976249E-3],"split_indices":[28,56,45,0,0,0,0],"split_type":[0,0,0,0,0,0,0],"sum_hessian":[1.5033264E2,1.318729E2,1.8459747E1,1.2058607E2,1.1286825E1,1.121459E1,7.245157E0],"tree_param":{"num_deleted":"0","num_feature":"131","num_nodes":"7","size_leaf_vector":"1"}},{"base_weights":[-1.5197926E-2,-5.0211186E-3,1.241522E-1],"categories":[],"categories_nodes":[],"categories_segments":[],"categories_sizes":[],"default_left":[0,0,0],"id":104,"left_children":[1,-1,-1],"loss_changes":[9.1330945E2,0E0,0E0],"parents":[2147483647,0,0],"right_children":[2,-1,-1],"split_conditions":[1E0,-5.0211186E-3,1.241522E-1],"split_indices":[21,0,0],"split_type":[0,0,0],"sum_hessian":[1.5083513E2,1.4615031E2,4.684824E0],"tree_param":{"num_deleted":"0","num_feature":"131","num_nodes":"3","size_leaf_vector":"1"}},{"base_weights":[8.1355794E-4,-4.6846464E-1,1.2387202E-1,-5.0166566E-3,3.624153E-4],"categories":[],"categories_nodes":[],"categories_segments":[],"categories_sizes":[],"default_left":[0,0,0,0,0],"id":105,"left_children":[1,3,-1,-1,-1],"loss_changes":[9.0672E2,2.9677048E0,0E0,0E0,0E0],"parents":[2147483647,0,0,1,1],"right_children":[2,4,-1,-1,-1],"split_conditions":[1E0,1E0,1.2387202E-1,-5.0166566E-3,3.624153E-4],"split_indices":[58,34,0,0,0],"split_type":[0,0,0,0,0],"sum_hessian":[1.5194168E2,1.4724452E2,4.6971498E0,1.4002092E2,7.223603E0],"tree_param":{"num_deleted":"0","num_feature":"131","num_nodes":"5","size_leaf_vector":"1"}},{"base_weights":[-0E0,-5.0169174E-3,7.5744777E0,1.24048494E-1,-1.7560726E-3],"categories":[],"categories_nodes":[],"categories_segments":[],"categories_sizes":[],"default_left":[0,0,0,0,0],"id":106,"left_children":[1,-1,3,-1,-1],"loss_changes":[5.7114594E2,0E0,3.638661E2,0E0,0E0],"parents":[2147483647,0,0,2,2],"right_children":[2,-1,4,-1,-1],"split_conditions":[1E0,-5.0169174E-3,1E0,1.24048494E-1,-1.7560726E-3],"split_indices":[1,0,15,0,0],"split_type":[0,0,0,0,0],"sum_hessian":[1.4869232E2,1.4035745E2,8.334873E0,4.844117E0,3.490756E0],"tree_param":{"num_deleted":"0","num_feature":"131","num_nodes":"5","size_leaf_vector":"1"}},{"base_weights":[7.895639E-4,-5.020336E-3,1.2518317E-1],"categories":[],"categories_nodes":[],"categories_segments":[],"categories_sizes":[],"default_left":[0,0,0],"id":107,"left_children":[1,-1,-1],"loss_changes":[9.6870935E2,0E0,0E0],"parents":[2147483647,0,0],"right_children":[2,-1,-1],"split_conditions":[1E0,-5.020336E-3,1.2518317E-1],"split_indices":[79,0,0],"split_type":[0,0,0],"sum_hessian":[1.4999985E2,1.4505315E2,4.946711E0],"tree_param":{"num_deleted":"0","num_feature":"131","num_nodes":"3","size_leaf_vector":"1"}},{"base_weights":[-4.8262724E-3,-5.0202427E-3,1.23647876E-1],"categories":[],"categories_nodes":[],"categories_segments":[],"categories_sizes":[],"default_left":[0,0,0],"id":108,"left_children":[1,-1,-1],"loss_changes":[9.211761E2,0E0,0E0],"parents":[2147483647,0,0],"right_children":[2,-1,-1],"split_conditions":[1E0,-5.0202427E-3,1.23647876E-1],"split_indices":[15,0,0],"split_type":[0,0,0],"sum_hessian":[1.4970068E2,1.4491603E2,4.7846575E0],"tree_param":{"num_deleted":"0","num_feature":"131","num_nodes":"3","size_leaf_vector":"1"}},{"base_weights":[-2.7041628E-3,-4.813931E-3,1.2401402E-1],"categories":[],"categories_nodes":[],"categories_segments":[],"categories_sizes":[],"default_left":[0,0,0],"id":109,"left_children":[1,-1,-1],"loss_changes":[8.8515063E2,0E0,0E0],"parents":[2147483647,0,0],"right_children":[2,-1,-1],"split_conditions":[1E0,-4.813931E-3,1.2401402E-1],"split_indices":[10,0,0],"split_type":[0,0,0],"sum_hessian":[1.4907484E2,1.4453873E2,4.5361094E0],"tree_param":{"num_deleted":"0","num_feature":"131","num_nodes":"3","size_leaf_vector":"1"}},{"base_weights":[7.616999E-3,-4.796307E-3,4.226717E0,-1.1951516E-3,1.2476231E-1],"categories":[],"categories_nodes":[],"categories_segments":[],"categories_sizes":[],"default_left":[0,0,0,0,0],"id":110,"left_children":[1,-1,3,-1,-1],"loss_changes":[3.2002106E2,0E0,5.925447E2,0E0,0E0],"parents":[2147483647,0,0,2,2],"right_children":[2,-1,4,-1,-1],"split_conditions":[1E0,-4.796307E-3,1E0,-1.1951516E-3,1.2476231E-1],"split_indices":[126,0,0,0,0],"split_type":[0,0,0,0,0],"sum_hessian":[1.5186255E2,1.3672232E2,1.5140236E1,1.0482078E1,4.6581583E0],"tree_param":{"num_deleted":"0","num_feature":"131","num_nodes":"5","size_leaf_vector":"1"}},{"base_weights":[3.6529142E-2,-5.0118635E-3,4.55102E0,-0E0,1.2521003E-1],"categories":[],"categories_nodes":[],"categories_segments":[],"categories_sizes":[],"default_left":[0,0,0,0,0],"id":111,"left_children":[1,-1,3,-1,-1],"loss_changes":[3.71126E2,0E0,5.9468677E2,0E0,0E0],"parents":[2147483647,0,0,2,2],"right_children":[2,-1,4,-1,-1],"split_conditions":[1E0,-5.0118635E-3,1E0,-0E0,1.2521003E-1],"split_indices":[68,0,109,0,0],"split_type":[0,0,0,0,0],"sum_hessian":[1.4927539E2,1.3398416E2,1.5291217E1,1.034573E1,4.945487E0],"tree_param":{"num_deleted":"0","num_feature":"131","num_nodes":"5","size_leaf_vector":"1"}},{"base_weights":[3.1288985E-2,-4.6123454E-1,1.2482318E-1,-5.0183604E-3,7.0686657E-3],"categories":[],"categories_nodes":[],"categories_segments":[],"categories_sizes":[],"default_left":[0,0,0,0,0],"id":112,"left_children":[1,3,-1,-1,-1],"loss_changes":[9.482154E2,7.113737E0,0E0,0E0,0E0],"parents":[2147483647,0,0,1,1],"right_children":[2,4,-1,-1,-1],"split_conditions":[1E0,1E0,1.2482318E-1,-5.0183604E-3,7.0686657E-3],"split_indices":[120,2,0,0,0],"split_type":[0,0,0,0,0],"sum_hessian":[1.5072415E2,1.458379E2,4.8862467E0,1.4231763E2,3.520285E0],"tree_param":{"num_deleted":"0","num_feature":"131","num_nodes":"5","size_leaf_vector":"1"}},{"base_weights":[2.233873E-2,-4.8178688E-1,1.2617618E-1,-5.0186184E-3,1.256727E-4],"categories":[],"categories_nodes":[],"categories_segments":[],"categories_sizes":[],"default_left":[0,0,0,0,0],"id":113,"left_children":[1,3,-1,-1,-1],"loss_changes":[9.858532E2,1.95858E0,0E0,0E0,0E0],"parents":[2147483647,0,0,1,1],"right_children":[2,4,-1,-1,-1],"split_conditions":[1E0,1E0,1.2617618E-1,-5.0186184E-3,1.256727E-4],"split_indices":[46,78,0,0,0],"split_type":[0,0,0,0,0],"sum_hessian":[1.5139354E2,1.464156E2,4.9779263E0,1.4263121E2,3.7843916E0],"tree_param":{"num_deleted":"0","num_feature":"131","num_nodes":"5","size_leaf_vector":"1"}},{"base_weights":[-1.7389018E-2,-4.8149885E-3,1.2255571E-1],"categories":[],"categories_nodes":[],"categories_segments":[],"categories_sizes":[],"default_left":[0,0,0],"id":114,"left_children":[1,-1,-1],"loss_changes":[8.513006E2,0E0,0E0],"parents":[2147483647,0,0],"right_children":[2,-1,-1],"split_conditions":[1E0,-4.8149885E-3,1.2255571E-1],"split_indices":[4,0,0],"split_type":[0,0,0],"sum_hessian":[1.494869E2,1.450442E2,4.442692E0],"tree_param":{"num_deleted":"0","num_feature":"131","num_nodes":"3","size_leaf_vector":"1"}},{"base_weights":[3.5746608E-2,-4.754014E-1,1.2616484E-1,-5.0199437E-3,2.6569548E-3],"categories":[],"categories_nodes":[],"categories_segments":[],"categories_sizes":[],"default_left":[0,0,0,0,0],"id":115,"left_children":[1,3,-1,-1,-1],"loss_changes":[1.00933575E3,3.3062859E0,0E0,0E0,0E0],"parents":[2147483647,0,0,1,1],"right_children":[2,4,-1,-1,-1],"split_conditions":[1E0,1E0,1.2616484E-1,-5.0199437E-3,2.6569548E-3],"split_indices":[51,49,0,0,0],"split_type":[0,0,0,0,0],"sum_hessian":[1.531371E2,1.4800641E2,5.1306887E0,1.444935E2,3.5129125E0],"tree_param":{"num_deleted":"0","num_feature":"131","num_nodes":"5","size_leaf_vector":"1"}},{"base_weights":[-5.3269815E-2,-5.0210375E-3,1.2186918E-1],"categories":[],"categories_nodes":[],"categories_segments":[],"categories_sizes":[],"default_left":[0,0,0],"id":116,"left_children":[1,-1,-1],"loss_changes":[8.259826E2,0E0,0E0],"parents":[2147483647,0,0],"right_children":[2,-1,-1],"split_conditions":[1E0,-5.0210375E-3,1.2186918E-1],"split_indices":[94,0,0],"split_type":[0,0,0],"sum_hessian":[1.5036092E2,1.4604625E2,4.314674E0],"tree_param":{"num_deleted":"0","num_feature":"131","num_nodes":"3","size_leaf_vector":"1"}},{"base_weights":[1.2321621E-2,-4.7434568E-1,1.2508903E-1,-5.005298E-3,-2.1276665E-3],"categories":[],"categories_nodes":[],"categories_segments":[],"categories_sizes":[],"default_left":[0,0,0,0,0],"id":117,"left_children":[1,3,-1,-1,-1],"loss_changes":[9.2771204E2,1.7243195E-1,0E0,0E0,0E0],"parents":[2147483647,0,0,1,1],"right_children":[2,4,-1,-1,-1],"split_conditions":[1E0,1E0,1.2508903E-1,-5.005298E-3,-2.1276665E-3],"split_indices":[97,56,0,0,0],"split_type":[0,0,0,0,0],"sum_hessian":[1.4858765E2,1.438669E2,4.7207375E0,1.26470726E2,1.7396177E1],"tree_param":{"num_deleted":"0","num_feature":"131","num_nodes":"5","size_leaf_vector":"1"}},{"base_weights":[2.3562813E-2,-5.0195963E-3,1.2548527E-1],"categories":[],"categories_nodes":[],"categories_segments":[],"categories_sizes":[],"default_left":[0,0,0],"id":118,"left_children":[1,-1,-1],"loss_changes":[1.00684265E3,0E0,0E0],"parents":[2147483647,0,0],"right_children":[2,-1,-1],"split_conditions":[1E0,-5.0195963E-3,1.2548527E-1],"split_indices":[11,0,0],"split_type":[0,0,0],"sum_hessian":[1.4917848E2,1.4401595E2,5.1625376E0],"tree_param":{"num_deleted":"0","num_feature":"131","num_nodes":"3","size_leaf_vector":"1"}},{"base_weights":[2.0413129E-2,-4.883446E-1,1.2542139E-1,-5.017694E-3,-0E0],"categories":[],"categories_nodes":[],"categories_segments":[],"categories_sizes":[],"default_left":[0,0,0,0,0],"id":119,"left_children":[1,3,-1,-1,-1],"loss_changes":[9.8055585E2,1.026226E0,0E0,0E0,0E0],"parents":[2147483647,0,0,1,1],"right_children":[2,4,-1,-1,-1],"split_conditions":[1E0,1E0,1.2542139E-1,-5.017694E-3,-0E0],"split_indices":[7,23,0,0,0],"split_type":[0,0,0,0,0],"sum_hessian":[1.5006715E2,1.4505472E2,5.0124345E0,1.4141989E2,3.6348298E0],"tree_param":{"num_deleted":"0","num_feature":"131","num_nodes":"5","size_leaf_vector":"1"}},{"base_weights":[2.0526279E-2,-4.7469854E-1,1.2615173E-1,-5.0178724E-3,2.5883007E-3],"categories":[],"categories_nodes":[],"categories_segments":[],"categories_sizes":[],"default_left":[0,0,0,0,0],"id":120,"left_children":[1,3,-1,-1,-1],"loss_changes":[9.6016833E2,3.278061E0,0E0,0E0,0E0],"parents":[2147483647,0,0,1,1],"right_children":[2,4,-1,-1,-1],"split_conditions":[1E0,1E0,1.2615173E-1,-5.0178724E-3,2.5883007E-3],"split_indices":[9,17,0,0,0],"split_type":[0,0,0,0,0],"sum_hessian":[1.5003609E2,1.4520932E2,4.826758E0,1.4165723E2,3.552105E0],"tree_param":{"num_deleted":"0","num_feature":"131","num_nodes":"5","size_leaf_vector":"1"}},{"base_weights":[2.4559645E-3,-4.8145074E-1,1.2549601E-1,-5.017384E-3,9.714797E-5],"categories":[],"categories_nodes":[],"categories_segments":[],"categories_sizes":[],"default_left":[0,0,0,0,0],"id":121,"left_children":[1,3,-1,-1,-1],"loss_changes":[9.319667E2,1.9498291E0,0E0,0E0,0E0],"parents":[2147483647,0,0,1,1],"right_children":[2,4,-1,-1,-1],"split_conditions":[1E0,1E0,1.2549601E-1,-5.017384E-3,9.714797E-5],"split_indices":[27,74,0,0,0],"split_type":[0,0,0,0,0],"sum_hessian":[1.495121E2,1.4480916E2,4.702936E0,1.409996E2,3.8095627E0],"tree_param":{"num_deleted":"0","num_feature":"131","num_nodes":"5","size_leaf_vector":"1"}},{"base_weights":[-4.018846E-2,-5.014348E-3,5.084526E0,-3.2115343E-3,1.23372704E-1],"categories":[],"categories_nodes":[],"categories_segments":[],"categories_sizes":[],"default_left":[0,0,0,0,0],"id":122,"left_children":[1,-1,3,-1,-1],"loss_changes":[3.508425E2,0E0,4.957684E2,0E0,0E0],"parents":[2147483647,0,0,2,2],"right_children":[2,-1,4,-1,-1],"split_conditions":[1E0,-5.014348E-3,1E0,-3.2115343E-3,1.23372704E-1],"split_indices":[64,0,28,0,0],"split_type":[0,0,0,0,0],"sum_hessian":[1.4828618E2,1.3704851E2,1.1237668E1,6.9072995E0,4.3303685E0],"tree_param":{"num_deleted":"0","num_feature":"131","num_nodes":"5","size_leaf_vector":"1"}},{"base_weights":[7.835314E-2,-4.8161262E-1,1.1449227E-1,-5.01479E-3,-0E0],"categories":[],"categories_nodes":[],"categories_segments":[],"categories_sizes":[],"default_left":[0,0,0,0,0],"id":123,"left_children":[1,3,-1,-1,-1],"loss_changes":[9.9166833E2,9.846573E-1,0E0,0E0,0E0],"parents":[2147483647,0,0,1,1],"right_children":[2,4,-1,-1,-1],"split_conditions":[1E0,1E0,1.1449227E-1,-5.01479E-3,-0E0],"split_indices":[119,61,0,0,0],"split_type":[0,0,0,0,0],"sum_hessian":[1.5215544E2,1.45843E2,6.3124285E0,1.3835435E2,7.488662E0],"tree_param":{"num_deleted":"0","num_feature":"131","num_nodes":"5","size_leaf_vector":"1"}},{"base_weights":[-5.3702336E-2,-4.6132333E-3,1.1089452E-1],"categories":[],"categories_nodes":[],"categories_segments":[],"categories_sizes":[],"default_left":[0,0,0],"id":124,"left_children":[1,-1,-1],"loss_changes":[6.826133E2,0E0,0E0],"parents":[2147483647,0,0],"right_children":[2,-1,-1],"split_conditions":[1E0,-4.6132333E-3,1.1089452E-1],"split_indices":[69,0,0],"split_type":[0,0,0],"sum_hessian":[1.5049664E2,1.4619704E2,4.299603E0],"tree_param":{"num_deleted":"0","num_feature":"131","num_nodes":"3","size_leaf_vector":"1"}},{"base_weights":[-0E0,-4.4705003E-1,1.13089606E-1,-5.002227E-3,-7.5058144E-4],"categories":[],"categories_nodes":[],"categories_segments":[],"categories_sizes":[],"default_left":[0,0,0,0,0],"id":125,"left_children":[1,3,-1,-1,-1],"loss_changes":[7.5918207E2,2.2677479E0,0E0,0E0,0E0],"parents":[2147483647,0,0,1,1],"right_children":[2,4,-1,-1,-1],"split_conditions":[1E0,1E0,1.13089606E-1,-5.002227E-3,-7.5058144E-4],"split_indices":[86,100,0,0,0],"split_type":[0,0,0,0,0],"sum_hessian":[1.4934059E2,1.4463208E2,4.708516E0,1.2389022E2,2.0741865E1],"tree_param":{"num_deleted":"0","num_feature":"131","num_nodes":"5","size_leaf_vector":"1"}},{"base_weights":[-0E0,-4.741976E-3,1.1261675E-1],"categories":[],"categories_nodes":[],"categories_segments":[],"categories_sizes":[],"default_left":[0,0,0],"id":126,"left_children":[1,-1,-1],"loss_changes":[8.02429E2,0E0,0E0],"parents":[2147483647,0,0],"right_children":[2,-1,-1],"split_conditions":[1E0,-4.741976E-3,1.1261675E-1],"split_indices":[42,0,0],"split_type":[0,0,0],"sum_hessian":[1.4856154E2,1.4349068E2,5.0708575E0],"tree_param":{"num_deleted":"0","num_feature":"131","num_nodes":"3","size_leaf_vector":"1"}},{"base_weights":[2.8825343E-2,-4.469643E-1,1.150137E-1,-5.0162445E-3,9.315513E-3],"categories":[],"categories_nodes":[],"categories_segments":[],"categories_sizes":[],"default_left":[0,0,0,0,0],"id":127,"left_children":[1,3,-1,-1,-1],"loss_changes":[8.380029E2,1.09961605E1,0E0,0E0,0E0],"parents":[2147483647,0,0,1,1],"right_children":[2,4,-1,-1,-1],"split_conditions":[1E0,1E0,1.150137E-1,-5.0162445E-3,9.315513E-3],"split_indices":[122,25,0,0,0],"split_type":[0,0,0,0,0],"sum_hessian":[1.4955513E2,1.4443883E2,5.1162944E0,1.4023965E2,4.199177E0],"tree_param":{"num_deleted":"0","num_feature":"131","num_nodes":"5","size_leaf_vector":"1"}},{"base_weights":[-2.448872E-3,-4.949712E-1,1.1131397E-1,-5.016299E-3,-0E0],"categories":[],"categories_nodes":[],"categories_segments":[],"categories_sizes":[],"default_left":[0,0,0,0,0],"id":128,"left_children":[1,3,-1,-1,-1],"loss_changes":[8.173361E2,9.74884E-2,0E0,0E0,0E0],"parents":[2147483647,0,0,1,1],"right_children":[2,4,-1,-1,-1],"split_conditions":[1E0,1E0,1.1131397E-1,-5.016299E-3,-0E0],"split_indices":[66,70,0,0,0],"split_type":[0,0,0,0,0],"sum_hessian":[1.4898409E2,1.4367381E2,5.3102665E0,1.4024593E2,3.4278913E0],"tree_param":{"num_deleted":"0","num_feature":"131","num_nodes":"5","size_leaf_vector":"1"}},{"base_weights":[-4.496092E-2,-4.8189119E-1,1.10826455E-1,-5.0187437E-3,3.5138495E-4],"categories":[],"categories_nodes":[],"categories_segments":[],"categories_sizes":[],"default_left":[0,0,0,0,0],"id":129,"left_children":[1,3,-1,-1,-1],"loss_changes":[7.383331E2,2.0156288E0,0E0,0E0,0E0],"parents":[2147483647,0,0,1,1],"right_children":[2,4,-1,-1,-1],"split_conditions":[1E0,1E0,1.10826455E-1,-5.0187437E-3,3.5138495E-4],"split_indices":[67,39,0,0,0],"split_type":[0,0,0,0,0],"sum_hessian":[1.5194017E2,1.472066E2,4.73357E0,1.4361916E2,3.5874422E0],"tree_param":{"num_deleted":"0","num_feature":"131","num_nodes":"5","size_leaf_vector":"1"}},{"base_weights":[-6.838328E-3,-4.6783203E-1,1.1077424E-1,-5.0174687E-3,4.9165622E-3],"categories":[],"categories_nodes":[],"categories_segments":[],"categories_sizes":[],"default_left":[0,0,0,0,0],"id":130,"left_children":[1,3,-1,-1,-1],"loss_changes":[7.676251E2,5.0173225E0,0E0,0E0,0E0],"parents":[2147483647,0,0,1,1],"right_children":[2,4,-1,-1,-1],"split_conditions":[1E0,1E0,1.1077424E-1,-5.0174687E-3,4.9165622E-3],"split_indices":[123,72,0,0,0],"split_type":[0,0,0,0,0],"sum_hessian":[1.5028893E2,1.4529416E2,4.994763E0,1.4180124E2,3.4929333E0],"tree_param":{"num_deleted":"0","num_feature":"131","num_nodes":"5","size_leaf_vector":"1"}},{"base_weights":[-0E0,-5.016067E-3,7.3365846E0,1.12025E-1,-1.5002183E-3],"categories":[],"categories_nodes":[],"categories_segments":[],"categories_sizes":[],"default_left":[0,0,0,0,0],"id":131,"left_children":[1,-1,3,-1,-1],"loss_changes":[5.5305597E2,0E0,2.9104065E2,0E0,0E0],"parents":[2147483647,0,0,2,2],"right_children":[2,-1,4,-1,-1],"split_conditions":[1E0,-5.016067E-3,1E0,1.12025E-1,-1.5002183E-3],"split_indices":[90,0,6,0,0],"split_type":[0,0,0,0,0],"sum_hessian":[1.4862117E2,1.4000533E2,8.6158495E0,5.442631E0,3.1732192E0],"tree_param":{"num_deleted":"0","num_feature":"131","num_nodes":"5","size_leaf_vector":"1"}},{"base_weights":[2.372893E-2,-4.8468066E-3,2.735895E0,-1.6688174E-3,1.1125075E-1],"categories":[],"categories_nodes":[],"categories_segments":[],"categories_sizes":[],"default_left":[0,0,0,0,0],"id":132,"left_children":[1,-1,3,-1,-1],"loss_changes":[2.1056944E2,0E0,6.0112274E2,0E0,0E0],"parents":[2147483647,0,0,2,2],"right_children":[2,-1,4,-1,-1],"split_conditions":[1E0,-4.8468066E-3,1E0,-1.6688174E-3,1.1125075E-1],"split_indices":[55,0,71,0,0],"split_type":[0,0,0,0,0],"sum_hessian":[1.4911494E2,1.2595635E2,2.315859E1,1.7844904E1,5.3136864E0],"tree_param":{"num_deleted":"0","num_feature":"131","num_nodes":"5","size_leaf_vector":"1"}},{"base_weights":[-1.22802695E-2,-5.019455E-3,1.1102759E-1],"categories":[],"categories_nodes":[],"categories_segments":[],"categories_sizes":[],"default_left":[0,0,0],"id":133,"left_children":[1,-1,-1],"loss_changes":[8.164508E2,0E0,0E0],"parents":[2147483647,0,0],"right_children":[2,-1,-1],"split_conditions":[1E0,-5.019455E-3,1.1102759E-1],"split_indices":[22,0,0],"split_type":[0,0,0],"sum_hessian":[1.4993361E2,1.4460782E2,5.3257875E0],"tree_param":{"num_deleted":"0","num_feature":"131","num_nodes":"3","size_leaf_vector":"1"}},{"base_weights":[-0E0,-5.0186897E-3,1.1190498E-1],"categories":[],"categories_nodes":[],"categories_segments":[],"categories_sizes":[],"default_left":[0,0,0],"id":134,"left_children":[1,-1,-1],"loss_changes":[8.440224E2,0E0,0E0],"parents":[2147483647,0,0],"right_children":[2,-1,-1],"split_conditions":[1E0,-5.0186897E-3,1.1190498E-1],"split_indices":[75,0,0],"split_type":[0,0,0],"sum_hessian":[1.4898293E2,1.435337E2,5.449222E0],"tree_param":{"num_deleted":"0","num_feature":"131","num_nodes":"3","size_leaf_vector":"1"}},{"base_weights":[-0E0,-5.0198482E-3,1.122949E-1],"categories":[],"categories_nodes":[],"categories_segments":[],"categories_sizes":[],"default_left":[0,0,0],"id":135,"left_children":[1,-1,-1],"loss_changes":[8.688546E2,0E0,0E0],"parents":[2147483647,0,0],"right_children":[2,-1,-1],"split_conditions":[1E0,-5.0198482E-3,1.122949E-1],"split_indices":[48,0,0],"split_type":[0,0,0],"sum_hessian":[1.507647E2,1.4516666E2,5.5980387E0],"tree_param":{"num_deleted":"0",